svm_type c_svc
kernel_type rbf
gamma 0.001
nr_class 2
total_sv 661
rho -1.9605
label 0 1
nr_sv 329 332
SV
8.292243145614881 2:1 7:1 12:1 15:1 17:1 23:1 26:1 28:1 33:1 34:1 40:1 45:1 47:1 50:1 52:1 58:1 63:1 64:1 67:1 72:1 73:1 76:1 80:1 83:1 85:1 88:1 91:1 95:1 97:1 101:1 113:1 120:1 122:1 126:1 132:1 138:1 144:1 145:1 150:1 151:1 154:1 160:1 163:1 170:1 172:1 177:1 178:1 
10 3:1 6:1 8:1 15:1 18:1 19:1 23:1 26:1 30:1 31:1 35:1 38:1 40:1 44:1 46:1 51:1 53:1 57:1 59:1 63:1 69:1 71:1 73:1 78:1 82:1 85:1 90:1 95:1 99:1 102:1 104:1 107:1 110:1 113:1 116:1 123:1 125:1 128:1 131:1 134:1 138:1 143:1 146:1 153:1 155:1 158:1 161:1 168:1 170:1 173:1 177:1 180:1 
2.32817708714463 1:1 4:1 9:1 11:1 20:1 27:1 28:1 33:1 34:1 44:1 47:1 50:1 53:1 56:1 58:1 66:1 72:1 74:1 81:1 82:1 86:1 93:1 96:1 99:1 100:1 104:1 106:1 109:1 112:1 116:1 122:1 127:1 131:1 134:1 137:1 140:1 143:1 146:1 148:1 151:1 154:1 157:1 162:1 163:1 166:1 169:1 172:1 177:1 178:1 
2.509114801211699 5:1 8:1 11:1 15:1 21:1 23:1 26:1 29:1 36:1 39:1 42:1 43:1 48:1 50:1 54:1 57:1 60:1 68:1 70:1 75:1 78:1 79:1 83:1 86:1 90:1 92:1 96:1 99:1 100:1 107:1 111:1 114:1 115:1 118:1 123:1 129:1 130:1 135:1 136:1 139:1 146:1 149:1 152:1 154:1 159:1 161:1 168:1 174:1 180:1 
10 5:1 8:1 10:1 15:1 17:1 32:1 38:1 40:1 45:1 50:1 52:1 56:1 62:1 64:1 69:1 71:1 73:1 80:1 83:1 85:1 89:1 91:1 95:1 97:1 102:1 105:1 107:1 110:1 112:1 117:1 120:1 121:1 125:1 128:1 130:1 135:1 136:1 139:1 142:1 149:1 152:1 155:1 170:1 172:1 176:1 179:1 
10 3:1 4:1 14:1 20:1 23:1 30:1 36:1 38:1 43:1 48:1 49:1 57:1 63:1 65:1 67:1 70:1 73:1 81:1 83:1 85:1 88:1 93:1 95:1 100:1 105:1 111:1 114:1 116:1 125:1 127:1 130:1 133:1 136:1 142:1 147:1 148:1 153:1 154:1 157:1 164:1 167:1 170:1 172:1 176:1 
10 3:1 16:1 20:1 23:1 26:1 28:1 31:1 37:1 40:1 45:1 48:1 50:1 52:1 56:1 59:1 61:1 65:1 68:1 71:1 73:1 77:1 80:1 85:1 93:1 94:1 100:1 104:1 111:1 117:1 119:1 124:1 128:1 130:1 135:1 136:1 144:1 147:1 148:1 153:1 157:1 164:1 174:1 175:1 179:1 
10 3:1 4:1 7:1 12:1 15:1 17:1 27:1 28:1 33:1 36:1 38:1 41:1 48:1 51:1 52:1 57:1 69:1 70:1 75:1 76:1 80:1 83:1 85:1 90:1 92:1 95:1 102:1 105:1 107:1 110:1 112:1 115:1 119:1 121:1 127:1 130:1 134:1 136:1 139:1 144:1 145:1 149:1 152:1 158:1 160:1 167:1 173:1 
10 1:1 6:1 9:1 12:1 15:1 17:1 24:1 26:1 29:1 33:1 35:1 37:1 42:1 44:1 47:1 51:1 53:1 56:1 60:1 62:1 66:1 67:1 72:1 74:1 77:1 83:1 86:1 90:1 93:1 94:1 98:1 100:1 105:1 106:1 110:1 114:1 116:1 119:1 121:1 126:1 127:1 132:1 134:1 138:1 139:1 144:1 147:1 148:1 153:1 156:1 158:1 162:1 164:1 169:1 173:1 177:1 179:1 
10 3:1 6:1 7:1 11:1 13:1 18:1 20:1 23:1 26:1 29:1 32:1 34:1 39:1 42:1 44:1 47:1 51:1 57:1 59:1 63:1 66:1 68:1 72:1 74:1 80:1 83:1 86:1 93:1 96:1 97:1 102:1 105:1 108:1 114:1 119:1 122:1 124:1 129:1 132:1 133:1 141:1 142:1 147:1 149:1 156:1 159:1 160:1 164:1 166:1 170:1 173:1 176:1 
10 2:1 6:1 9:1 11:1 14:1 20:1 24:1 26:1 28:1 31:1 36:1 38:1 41:1 44:1 46:1 50:1 54:1 57:1 59:1 62:1 65:1 69:1 71:1 78:1 81:1 84:1 87:1 90:1 96:1 98:1 101:1 105:1 110:1 113:1 116:1 120:1 122:1 126:1 128:1 131:1 135:1 138:1 141:1 144:1 146:1 150:1 153:1 154:1 159:1 161:1 163:1 168:1 171:1 173:1 176:1 179:1 
10 2:1 6:1 8:1 14:1 17:1 19:1 22:1 26:1 32:1 37:1 41:1 44:1 48:1 50:1 57:1 59:1 64:1 68:1 71:1 73:1 76:1 84:1 85:1 90:1 93:1 101:1 104:1 111:1 112:1 117:1 120:1 125:1 127:1 131:1 133:1 138:1 144:1 158:1 161:1 163:1 166:1 171:1 176:1 
10 3:1 4:1 9:1 16:1 21:1 22:1 27:1 30:1 32:1 39:1 45:1 48:1 53:1 56:1 59:1 65:1 68:1 74:1 83:1 93:1 95:1 98:1 101:1 107:1 113:1 119:1 126:1 128:1 131:1 137:1 144:1 150:1 152:1 158:1 160:1 165:1 171:1 177:1 178:1 
8.724338114454074 6:1 8:1 10:1 15:1 24:1 25:1 28:1 33:1 35:1 38:1 41:1 43:1 51:1 52:1 57:1 60:1 62:1 65:1 68:1 70:1 73:1 78:1 79:1 82:1 90:1 98:1 100:1 108:1 116:1 119:1 122:1 124:1 129:1 132:1 133:1 136:1 141:1 144:1 149:1 151:1 155:1 157:1 160:1 164:1 167:1 172:1 177:1 
10 5:1 8:1 14:1 21:1 24:1 30:1 32:1 35:1 37:1 40:1 44:1 51:1 53:1 55:1 60:1 62:1 64:1 68:1 72:1 74:1 79:1 84:1 87:1 90:1 93:1 99:1 102:1 107:1 109:1 113:1 116:1 122:1 124:1 129:1 131:1 134:1 138:1 139:1 144:1 147:1 148:1 152:1 154:1 158:1 161:1 167:1 171:1 174:1 177:1 180:1 
10 1:1 6:1 9:1 12:1 20:1 23:1 41:1 44:1 47:1 49:1 54:1 57:1 58:1 61:1 65:1 68:1 71:1 80:1 83:1 85:1 88:1 94:1 97:1 103:1 107:1 109:1 112:1 116:1 120:1 123:1 125:1 131:1 134:1 143:1 146:1 158:1 170:1 173:1 176:1 
10 6:1 12:1 18:1 20:1 23:1 25:1 28:1 32:1 35:1 38:1 40:1 45:1 46:1 51:1 52:1 55:1 60:1 61:1 64:1 67:1 75:1 78:1 81:1 89:1 93:1 96:1 99:1 100:1 105:1 109:1 113:1 115:1 122:1 124:1 127:1 131:1 137:1 150:1 153:1 154:1 159:1 160:1 168:1 169:1 174:1 176:1 
10 1:1 5:1 8:1 21:1 30:1 33:1 42:1 46:1 49:1 52:1 59:1 66:1 71:1 79:1 83:1 86:1 88:1 91:1 99:1 102:1 108:1 111:1 123:1 131:1 134:1 137:1 143:1 146:1 153:1 154:1 157:1 161:1 163:1 168:1 
10 2:1 17:1 20:1 22:1 27:1 28:1 33:1 35:1 38:1 46:1 52:1 59:1 69:1 72:1 76:1 82:1 90:1 92:1 95:1 97:1 100:1 108:1 109:1 117:1 119:1 122:1 126:1 128:1 131:1 133:1 146:1 153:1 154:1 159:1 161:1 164:1 166:1 171:1 172:1 175:1 178:1 
10 5:1 14:1 17:1 19:1 27:1 28:1 33:1 34:1 38:1 40:1 44:1 50:1 55:1 59:1 62:1 64:1 69:1 70:1 73:1 78:1 81:1 83:1 87:1 90:1 91:1 99:1 100:1 108:1 111:1 114:1 116:1 120:1 125:1 128:1 131:1 140:1 143:1 146:1 149:1 152:1 154:1 157:1 162:1 169:1 176:1 178:1 
2.332861699169437 2:1 4:1 9:1 11:1 17:1 19:1 24:1 26:1 28:1 33:1 35:1 38:1 42:1 44:1 47:1 51:1 53:1 56:1 58:1 63:1 64:1 69:1 71:1 73:1 78:1 81:1 82:1 86:1 90:1 91:1 94:1 98:1 101:1 105:1 107:1 110:1 112:1 115:1 122:1 126:1 128:1 130:1 133:1 138:1 141:1 143:1 145:1 149:1 152:1 158:1 165:1 166:1 171:1 172:1 175:1 179:1 
10 2:1 6:1 9:1 10:1 14:1 17:1 20:1 22:1 26:1 28:1 32:1 36:1 39:1 42:1 44:1 48:1 49:1 54:1 55:1 58:1 63:1 65:1 68:1 71:1 80:1 84:1 86:1 90:1 96:1 102:1 105:1 107:1 111:1 113:1 116:1 123:1 125:1 129:1 132:1 134:1 136:1 139:1 144:1 147:1 149:1 152:1 161:1 165:1 168:1 170:1 173:1 175:1 180:1 
10 1:1 9:1 10:1 18:1 30:1 32:1 35:1 41:1 44:1 48:1 50:1 53:1 56:1 63:1 65:1 68:1 75:1 77:1 83:1 90:1 92:1 99:1 102:1 107:1 116:1 118:1 125:1 128:1 134:1 136:1 142:1 152:1 155:1 162:1 165:1 166:1 171:1 176:1 
10 1:1 5:1 7:1 12:1 15:1 16:1 19:1 23:1 26:1 28:1 36:1 37:1 45:1 47:1 54:1 57:1 59:1 61:1 68:1 75:1 77:1 83:1 85:1 90:1 92:1 101:1 108:1 109:1 114:1 117:1 118:1 121:1 126:1 128:1 131:1 137:1 139:1 142:1 147:1 148:1 151:1 154:1 158:1 170:1 172:1 175:1 
10 3:1 4:1 9:1 10:1 14:1 18:1 20:1 27:1 29:1 31:1 36:1 38:1 42:1 44:1 46:1 50:1 54:1 57:1 58:1 62:1 65:1 68:1 71:1 74:1 77:1 80:1 82:1 85:1 90:1 91:1 95:1 97:1 101:1 103:1 109:1 117:1 118:1 122:1 125:1 128:1 130:1 134:1 137:1 139:1 143:1 146:1 149:1 152:1 154:1 161:1 167:1 174:1 175:1 179:1 
10 1:1 6:1 9:1 12:1 14:1 17:1 19:1 22:1 26:1 30:1 36:1 38:1 45:1 47:1 51:1 54:1 57:1 59:1 65:1 72:1 74:1 81:1 90:1 91:1 94:1 97:1 101:1 103:1 107:1 109:1 114:1 116:1 119:1 121:1 125:1 128:1 131:1 133:1 136:1 141:1 147:1 148:1 156:1 157:1 162:1 163:1 166:1 171:1 174:1 175:1 179:1 
10 5:1 8:1 11:1 14:1 20:1 23:1 26:1 28:1 32:1 35:1 38:1 44:1 46:1 51:1 54:1 57:1 58:1 63:1 65:1 68:1 70:1 75:1 78:1 80:1 86:1 90:1 93:1 95:1 97:1 110:1 117:1 120:1 122:1 124:1 129:1 131:1 133:1 136:1 141:1 142:1 150:1 151:1 154:1 158:1 161:1 164:1 167:1 170:1 173:1 176:1 178:1 
0.9089505583488779 3:1 5:1 7:1 12:1 15:1 19:1 24:1 27:1 32:1 35:1 37:1 40:1 45:1 47:1 54:1 56:1 59:1 62:1 65:1 69:1 74:1 77:1 79:1 82:1 85:1 89:1 91:1 98:1 101:1 107:1 116:1 119:1 129:1 134:1 141:1 144:1 145:1 150:1 152:1 155:1 162:1 165:1 166:1 171:1 174:1 175:1 180:1 
10 3:1 7:1 14:1 17:1 20:1 23:1 25:1 29:1 36:1 38:1 41:1 51:1 55:1 63:1 69:1 72:1 78:1 79:1 82:1 85:1 89:1 92:1 94:1 97:1 100:1 105:1 108:1 111:1 118:1 122:1 136:1 140:1 142:1 146:1 154:1 157:1 164:1 169:1 175:1 180:1 
6.283695952028966 9:1 12:1 17:1 19:1 24:1 27:1 29:1 36:1 39:1 44:1 54:1 55:1 58:1 62:1 68:1 71:1 78:1 79:1 83:1 86:1 92:1 94:1 99:1 105:1 106:1 113:1 120:1 122:1 125:1 132:1 134:1 137:1 143:1 147:1 150:1 152:1 155:1 161:1 164:1 167:1 169:1 172:1 175:1 180:1 
10 1:1 11:1 14:1 20:1 25:1 30:1 32:1 36:1 37:1 42:1 43:1 46:1 53:1 55:1 59:1 62:1 65:1 72:1 74:1 77:1 79:1 84:1 85:1 89:1 98:1 101:1 105:1 115:1 119:1 122:1 124:1 129:1 130:1 133:1 136:1 143:1 147:1 149:1 151:1 154:1 164:1 167:1 169:1 174:1 175:1 178:1 
10 2:1 5:1 20:1 35:1 40:1 44:1 47:1 49:1 53:1 55:1 63:1 66:1 68:1 71:1 73:1 78:1 81:1 83:1 85:1 93:1 94:1 97:1 113:1 116:1 118:1 121:1 124:1 145:1 153:1 155:1 161:1 168:1 170:1 179:1 
10 1:1 4:1 8:1 14:1 17:1 19:1 23:1 25:1 30:1 35:1 38:1 41:1 44:1 47:1 51:1 53:1 60:1 62:1 66:1 69:1 72:1 73:1 76:1 80:1 83:1 85:1 93:1 96:1 97:1 101:1 103:1 106:1 109:1 112:1 116:1 123:1 125:1 134:1 136:1 140:1 146:1 151:1 155:1 160:1 163:1 166:1 169:1 172:1 177:1 
0.4418491543409429 2:1 4:1 7:1 12:1 13:1 18:1 21:1 32:1 39:1 40:1 45:1 51:1 57:1 58:1 63:1 66:1 67:1 78:1 80:1 86:1 93:1 96:1 97:1 102:1 108:1 111:1 112:1 115:1 123:1 126:1 128:1 131:1 134:1 140:1 142:1 146:1 148:1 153:1 156:1 160:1 165:1 168:1 169:1 174:1 180:1 
10 2:1 8:1 14:1 28:1 36:1 38:1 47:1 53:1 68:1 70:1 74:1 80:1 87:1 90:1 91:1 96:1 97:1 101:1 103:1 108:1 109:1 114:1 116:1 123:1 127:1 132:1 135:1 136:1 141:1 142:1 145:1 150:1 153:1 154:1 157:1 162:1 164:1 170:1 173:1 176:1 
10 1:1 6:1 11:1 13:1 17:1 24:1 27:1 30:1 35:1 41:1 48:1 50:1 53:1 56:1 58:1 63:1 66:1 69:1 74:1 77:1 79:1 82:1 87:1 90:1 93:1 96:1 99:1 105:1 106:1 111:1 112:1 116:1 119:1 121:1 125:1 127:1 132:1 135:1 137:1 139:1 143:1 146:1 148:1 153:1 156:1 158:1 161:1 167:1 170:1 177:1 180:1 
10 7:1 11:1 21:1 23:1 25:1 29:1 39:1 43:1 46:1 49:1 53:1 56:1 58:1 63:1 66:1 75:1 78:1 80:1 82:1 85:1 90:1 93:1 94:1 99:1 100:1 103:1 106:1 109:1 114:1 120:1 126:1 127:1 130:1 144:1 145:1 149:1 151:1 157:1 160:1 163:1 171:1 172:1 175:1 
2.861504388691788 5:1 12:1 15:1 18:1 20:1 22:1 28:1 33:1 36:1 37:1 42:1 48:1 52:1 59:1 62:1 69:1 72:1 76:1 80:1 83:1 85:1 88:1 92:1 94:1 99:1 100:1 104:1 107:1 110:1 113:1 115:1 120:1 123:1 124:1 128:1 130:1 135:1 138:1 141:1 143:1 146:1 155:1 157:1 162:1 170:1 173:1 179:1 
10 9:1 11:1 13:1 18:1 20:1 22:1 25:1 28:1 33:1 34:1 41:1 51:1 54:1 55:1 58:1 61:1 69:1 71:1 81:1 82:1 85:1 90:1 91:1 95:1 98:1 100:1 104:1 106:1 109:1 114:1 117:1 119:1 126:1 127:1 130:1 133:1 136:1 141:1 147:1 149:1 162:1 164:1 171:1 174:1 175:1 180:1 
10 2:1 10:1 13:1 17:1 24:1 25:1 33:1 34:1 38:1 40:1 50:1 53:1 55:1 59:1 62:1 64:1 68:1 70:1 73:1 76:1 79:1 84:1 85:1 88:1 93:1 99:1 100:1 103:1 106:1 109:1 117:1 120:1 122:1 125:1 129:1 132:1 137:1 140:1 150:1 152:1 155:1 163:1 166:1 171:1 177:1 178:1 
10 5:1 12:1 18:1 20:1 23:1 25:1 30:1 32:1 41:1 49:1 56:1 59:1 64:1 70:1 75:1 76:1 81:1 84:1 85:1 90:1 91:1 94:1 97:1 102:1 104:1 110:1 112:1 115:1 118:1 123:1 124:1 132:1 133:1 136:1 139:1 147:1 148:1 151:1 158:1 164:1 167:1 176:1 
10 1:1 6:1 8:1 12:1 15:1 16:1 19:1 23:1 25:1 29:1 36:1 37:1 42:1 43:1 47:1 53:1 56:1 60:1 68:1 71:1 78:1 80:1 90:1 95:1 105:1 110:1 113:1 118:1 122:1 125:1 131:1 134:1 136:1 140:1 144:1 150:1 152:1 154:1 158:1 160:1 164:1 166:1 171:1 173:1 176:1 179:1 
6.324368654773681 3:1 6:1 8:1 12:1 14:1 27:1 32:1 39:1 42:1 45:1 46:1 51:1 54:1 56:1 60:1 63:1 70:1 74:1 81:1 82:1 85:1 90:1 92:1 94:1 99:1 102:1 104:1 106:1 114:1 115:1 118:1 123:1 126:1 127:1 132:1 135:1 138:1 139:1 144:1 146:1 148:1 153:1 156:1 159:1 160:1 165:1 166:1 171:1 177:1 180:1 
7.457447631550071 1:1 6:1 7:1 12:1 15:1 17:1 19:1 24:1 25:1 30:1 32:1 39:1 41:1 44:1 47:1 50:1 57:1 58:1 63:1 69:1 70:1 75:1 77:1 80:1 82:1 90:1 92:1 94:1 99:1 100:1 105:1 108:1 109:1 116:1 122:1 125:1 131:1 134:1 137:1 143:1 145:1 152:1 155:1 157:1 164:1 170:1 176:1 
10 3:1 10:1 14:1 17:1 22:1 33:1 39:1 41:1 43:1 50:1 67:1 70:1 73:1 79:1 83:1 93:1 94:1 103:1 111:1 115:1 118:1 122:1 125:1 127:1 133:1 136:1 139:1 146:1 153:1 154:1 158:1 160:1 165:1 167:1 169:1 177:1 
10 5:1 12:1 14:1 16:1 19:1 24:1 30:1 33:1 34:1 38:1 40:1 54:1 55:1 58:1 63:1 65:1 67:1 71:1 84:1 85:1 90:1 93:1 95:1 98:1 103:1 114:1 123:1 124:1 127:1 130:1 133:1 138:1 141:1 142:1 145:1 148:1 152:1 154:1 161:1 170:1 172:1 178:1 
10 10:1 13:1 16:1 19:1 22:1 27:1 29:1 33:1 36:1 38:1 42:1 43:1 47:1 53:1 56:1 60:1 68:1 70:1 74:1 77:1 80:1 83:1 87:1 93:1 99:1 101:1 108:1 118:1 123:1 125:1 127:1 131:1 134:1 137:1 139:1 144:1 146:1 149:1 155:1 158:1 161:1 164:1 168:1 174:1 175:1 178:1 
10 3:1 8:1 18:1 19:1 24:1 25:1 29:1 36:1 37:1 40:1 43:1 48:1 49:1 61:1 66:1 68:1 71:1 73:1 79:1 82:1 90:1 94:1 97:1 100:1 104:1 111:1 113:1 116:1 122:1 124:1 127:1 130:1 141:1 144:1 145:1 149:1 162:1 165:1 168:1 170:1 172:1 178:1 
10 3:1 11:1 13:1 18:1 20:1 23:1 36:1 37:1 41:1 44:1 54:1 57:1 58:1 61:1 66:1 72:1 74:1 77:1 79:1 84:1 85:1 90:1 96:1 98:1 101:1 104:1 107:1 112:1 115:1 120:1 122:1 131:1 138:1 140:1 143:1 146:1 149:1 152:1 158:1 160:1 165:1 166:1 169:1 173:1 175:1 180:1 
10 4:1 9:1 11:1 13:1 17:1 20:1 22:1 27:1 29:1 31:1 36:1 42:1 45:1 47:1 49:1 54:1 56:1 65:1 69:1 70:1 73:1 78:1 80:1 83:1 85:1 90:1 92:1 95:1 98:1 100:1 105:1 111:1 114:1 115:1 118:1 122:1 125:1 127:1 131:1 133:1 136:1 140:1 147:1 149:1 152:1 155:1 161:1 163:1 166:1 169:1 172:1 177:1 178:1 
10 1:1 8:1 10:1 13:1 19:1 22:1 27:1 29:1 35:1 38:1 43:1 48:1 53:1 56:1 58:1 63:1 64:1 68:1 72:1 74:1 77:1 79:1 87:1 90:1 93:1 98:1 100:1 113:1 115:1 119:1 121:1 126:1 127:1 132:1 135:1 136:1 141:1 144:1 145:1 149:1 151:1 154:1 159:1 162:1 164:1 169:1 173:1 178:1 
6.252617904996151 1:1 4:1 7:1 11:1 13:1 20:1 22:1 25:1 29:1 35:1 38:1 45:1 46:1 50:1 53:1 58:1 61:1 65:1 68:1 72:1 74:1 84:1 90:1 93:1 94:1 104:1 107:1 109:1 114:1 115:1 119:1 121:1 132:1 136:1 144:1 145:1 150:1 153:1 154:1 157:1 162:1 163:1 167:1 176:1 
10 3:1 4:1 12:1 13:1 16:1 21:1 22:1 30:1 31:1 36:1 37:1 45:1 53:1 58:1 66:1 72:1 75:1 76:1 83:1 90:1 93:1 94:1 98:1 100:1 103:1 108:1 109:1 112:1 117:1 120:1 121:1 126:1 127:1 131:1 134:1 138:1 143:1 150:1 153:1 155:1 157:1 164:1 171:1 174:1 175:1 180:1 
6.31269455589891 2:1 9:1 12:1 13:1 17:1 19:1 23:1 25:1 29:1 33:1 35:1 38:1 41:1 43:1 48:1 51:1 60:1 64:1 69:1 72:1 78:1 79:1 82:1 86:1 90:1 92:1 97:1 105:1 108:1 110:1 116:1 119:1 121:1 124:1 129:1 130:1 133:1 138:1 139:1 144:1 146:1 148:1 156:1 159:1 164:1 166:1 176:1 
10 2:1 9:1 12:1 15:1 16:1 21:1 23:1 27:1 29:1 35:1 48:1 51:1 52:1 59:1 62:1 65:1 67:1 74:1 77:1 80:1 86:1 88:1 93:1 96:1 98:1 105:1 108:1 110:1 113:1 115:1 120:1 121:1 126:1 131:1 134:1 137:1 144:1 147:1 149:1 151:1 156:1 158:1 165:1 166:1 171:1 174:1 177:1 178:1 
10 3:1 4:1 9:1 11:1 14:1 19:1 24:1 25:1 29:1 31:1 35:1 38:1 41:1 44:1 51:1 54:1 57:1 66:1 70:1 75:1 78:1 81:1 84:1 85:1 90:1 91:1 96:1 99:1 101:1 108:1 111:1 114:1 117:1 123:1 126:1 127:1 132:1 135:1 138:1 139:1 144:1 145:1 150:1 153:1 155:1 161:1 164:1 173:1 176:1 179:1 
10 1:1 12:1 15:1 17:1 19:1 22:1 27:1 30:1 31:1 36:1 37:1 44:1 46:1 57:1 58:1 62:1 65:1 71:1 75:1 81:1 90:1 93:1 94:1 98:1 101:1 105:1 106:1 109:1 119:1 123:1 125:1 127:1 130:1 135:1 137:1 144:1 147:1 149:1 152:1 156:1 157:1 161:1 164:1 166:1 171:1 177:1 179:1 
10 2:1 4:1 9:1 11:1 21:1 24:1 32:1 38:1 41:1 48:1 51:1 54:1 56:1 58:1 61:1 66:1 67:1 70:1 75:1 76:1 79:1 84:1 85:1 88:1 93:1 94:1 97:1 100:1 105:1 106:1 109:1 114:1 115:1 120:1 123:1 124:1 129:1 132:1 135:1 138:1 141:1 142:1 145:1 150:1 153:1 156:1 157:1 160:1 163:1 166:1 169:1 174:1 175:1 178:1 
10 5:1 8:1 11:1 14:1 18:1 20:1 22:1 26:1 28:1 33:1 35:1 39:1 40:1 43:1 46:1 53:1 59:1 62:1 65:1 67:1 72:1 78:1 81:1 83:1 85:1 89:1 92:1 96:1 97:1 102:1 105:1 108:1 111:1 114:1 116:1 120:1 121:1 126:1 129:1 132:1 139:1 142:1 147:1 153:1 156:1 159:1 162:1 165:1 168:1 171:1 172:1 177:1 180:1 
10 3:1 9:1 12:1 13:1 18:1 21:1 23:1 30:1 32:1 35:1 38:1 42:1 45:1 47:1 51:1 52:1 57:1 59:1 62:1 65:1 67:1 72:1 75:1 76:1 81:1 83:1 90:1 93:1 94:1 99:1 100:1 108:1 111:1 112:1 117:1 118:1 126:1 128:1 134:1 140:1 143:1 145:1 150:1 152:1 154:1 158:1 161:1 163:1 168:1 170:1 173:1 176:1 178:1 
10 3:1 6:1 7:1 15:1 17:1 26:1 29:1 31:1 34:1 41:1 48:1 51:1 52:1 62:1 64:1 67:1 75:1 76:1 81:1 84:1 85:1 90:1 91:1 95:1 105:1 107:1 110:1 117:1 120:1 126:1 127:1 130:1 133:1 136:1 143:1 145:1 152:1 154:1 158:1 165:1 168:1 173:1 
10 1:1 7:1 11:1 14:1 21:1 25:1 30:1 36:1 44:1 46:1 57:1 60:1 62:1 64:1 75:1 76:1 81:1 90:1 99:1 100:1 104:1 110:1 123:1 126:1 128:1 131:1 133:1 136:1 142:1 150:1 153:1 155:1 159:1 169:1 175:1 
9.469851042863038 3:1 5:1 10:1 15:1 19:1 69:1 73:1 94:1 100:1 105:1 106:1 111:1 112:1 116:1 118:1 123:1 126:1 129:1 134:1 144:1 146:1 149:1 151:1 159:1 168:1 170:1 173:1 176:1 178:1 
7.908412478129293 2:1 5:1 14:1 17:1 20:1 23:1 25:1 30:1 33:1 35:1 38:1 41:1 43:1 47:1 50:1 52:1 59:1 61:1 65:1 68:1 70:1 74:1 77:1 81:1 83:1 86:1 92:1 99:1 102:1 104:1 107:1 111:1 113:1 116:1 118:1 122:1 125:1 128:1 131:1 134:1 136:1 143:1 152:1 155:1 157:1 161:1 164:1 171:1 177:1 179:1 
0.9837990425628642 3:1 9:1 18:1 20:1 26:1 29:1 31:1 36:1 40:1 44:1 48:1 57:1 58:1 66:1 67:1 71:1 74:1 90:1 92:1 99:1 102:1 105:1 106:1 110:1 112:1 116:1 119:1 122:1 125:1 127:1 131:1 135:1 138:1 140:1 142:1 147:1 152:1 156:1 159:1 162:1 168:1 171:1 173:1 176:1 178:1 
10 4:1 7:1 10:1 16:1 19:1 34:1 37:1 42:1 43:1 46:1 49:1 54:1 56:1 63:1 66:1 74:1 76:1 80:1 82:1 85:1 90:1 93:1 99:1 101:1 104:1 106:1 110:1 112:1 126:1 127:1 135:1 136:1 139:1 142:1 147:1 149:1 151:1 154:1 157:1 160:1 166:1 170:1 172:1 177:1 
10 6:1 15:1 24:1 27:1 33:1 34:1 37:1 45:1 48:1 49:1 54:1 56:1 62:1 64:1 69:1 78:1 84:1 90:1 93:1 96:1 99:1 102:1 105:1 106:1 110:1 113:1 116:1 123:1 124:1 131:1 133:1 136:1 140:1 142:1 146:1 149:1 151:1 158:1 165:1 168:1 171:1 177:1 180:1 
10 1:1 6:1 8:1 15:1 18:1 19:1 35:1 38:1 48:1 57:1 59:1 64:1 79:1 82:1 85:1 88:1 93:1 96:1 102:1 107:1 110:1 112:1 117:1 123:1 129:1 130:1 135:1 138:1 144:1 146:1 150:1 151:1 155:1 162:1 165:1 171:1 174:1 175:1 180:1 
10 3:1 4:1 7:1 11:1 15:1 20:1 27:1 30:1 32:1 37:1 40:1 43:1 49:1 53:1 55:1 58:1 65:1 67:1 72:1 74:1 80:1 82:1 90:1 91:1 96:1 97:1 100:1 111:1 112:1 117:1 120:1 121:1 124:1 129:1 130:1 135:1 137:1 144:1 147:1 150:1 153:1 156:1 157:1 165:1 166:1 169:1 174:1 176:1 
10 1:1 6:1 9:1 12:1 14:1 17:1 19:1 23:1 27:1 33:1 35:1 38:1 40:1 45:1 48:1 50:1 53:1 56:1 60:1 63:1 66:1 69:1 71:1 78:1 81:1 83:1 87:1 90:1 92:1 97:1 101:1 107:1 109:1 114:1 116:1 118:1 123:1 125:1 128:1 131:1 137:1 140:1 146:1 148:1 152:1 155:1 158:1 162:1 167:1 174:1 177:1 180:1 
10 4:1 8:1 13:1 39:1 41:1 43:1 47:1 49:1 55:1 60:1 63:1 74:1 79:1 84:1 93:1 97:1 102:1 103:1 106:1 109:1 115:1 119:1 126:1 132:1 137:1 139:1 142:1 145:1 150:1 153:1 156:1 158:1 161:1 168:1 169:1 172:1 180:1 
10 2:1 4:1 9:1 11:1 13:1 18:1 20:1 26:1 28:1 33:1 35:1 38:1 44:1 47:1 50:1 53:1 56:1 59:1 63:1 65:1 72:1 75:1 78:1 81:1 82:1 87:1 89:1 93:1 94:1 97:1 100:1 105:1 116:1 126:1 129:1 134:1 140:1 142:1 147:1 149:1 158:1 160:1 173:1 176:1 180:1 
10 4:1 9:1 12:1 14:1 20:1 23:1 25:1 30:1 32:1 34:1 39:1 42:1 44:1 51:1 54:1 56:1 62:1 64:1 69:1 72:1 74:1 83:1 85:1 95:1 98:1 100:1 108:1 111:1 116:1 119:1 125:1 132:1 141:1 144:1 152:1 155:1 160:1 165:1 169:1 174:1 176:1 178:1 
10 3:1 4:1 9:1 11:1 18:1 20:1 27:1 29:1 33:1 35:1 44:1 50:1 53:1 55:1 58:1 62:1 69:1 70:1 74:1 76:1 79:1 83:1 90:1 93:1 95:1 98:1 102:1 105:1 110:1 117:1 119:1 121:1 124:1 129:1 134:1 136:1 141:1 142:1 147:1 150:1 151:1 159:1 162:1 164:1 167:1 169:1 174:1 180:1 
5.550963754714906 2:1 5:1 8:1 10:1 13:1 16:1 24:1 29:1 35:1 37:1 42:1 43:1 46:1 54:1 58:1 66:1 71:1 74:1 77:1 79:1 84:1 85:1 88:1 91:1 95:1 98:1 105:1 111:1 114:1 116:1 123:1 125:1 134:1 136:1 139:1 143:1 146:1 148:1 159:1 160:1 164:1 166:1 171:1 
3.739881471395734 5:1 7:1 10:1 20:1 25:1 35:1 38:1 40:1 50:1 54:1 55:1 67:1 72:1 80:1 84:1 85:1 95:1 100:1 110:1 112:1 116:1 125:1 128:1 130:1 140:1 143:1 145:1 155:1 159:1 160:1 170:1 173:1 175:1 180:1 
10 3:1 4:1 9:1 10:1 15:1 16:1 21:1 22:1 27:1 28:1 32:1 35:1 37:1 42:1 43:1 46:1 49:1 55:1 58:1 65:1 75:1 77:1 85:1 93:1 95:1 107:1 110:1 113:1 119:1 121:1 126:1 128:1 131:1 133:1 138:1 144:1 154:1 158:1 161:1 163:1 174:1 176:1 178:1 
10 1:1 9:1 10:1 15:1 18:1 21:1 22:1 27:1 30:1 34:1 39:1 42:1 45:1 46:1 50:1 54:1 57:1 61:1 65:1 72:1 77:1 80:1 83:1 85:1 90:1 93:1 97:1 103:1 113:1 117:1 118:1 121:1 124:1 129:1 134:1 137:1 139:1 145:1 148:1 156:1 159:1 167:1 169:1 174:1 175:1 178:1 
10 2:1 4:1 8:1 15:1 18:1 19:1 24:1 30:1 32:1 38:1 40:1 44:1 46:1 51:1 56:1 62:1 65:1 72:1 75:1 78:1 79:1 84:1 85:1 90:1 93:1 94:1 99:1 101:1 103:1 107:1 110:1 112:1 116:1 119:1 122:1 125:1 127:1 132:1 133:1 137:1 139:1 148:1 152:1 159:1 162:1 169:1 175:1 180:1 
10 2:1 5:1 7:1 12:1 18:1 19:1 22:1 27:1 32:1 35:1 37:1 40:1 43:1 53:1 56:1 60:1 63:1 64:1 81:1 82:1 90:1 99:1 100:1 104:1 107:1 113:1 117:1 120:1 121:1 124:1 128:1 130:1 133:1 140:1 143:1 149:1 151:1 156:1 157:1 162:1 169:1 172:1 180:1 
6.177257482141203 2:1 15:1 17:1 24:1 25:1 30:1 31:1 39:1 40:1 43:1 47:1 49:1 54:1 57:1 60:1 63:1 65:1 71:1 75:1 76:1 79:1 83:1 87:1 88:1 93:1 99:1 102:1 103:1 106:1 111:1 112:1 116:1 120:1 123:1 132:1 138:1 141:1 144:1 146:1 150:1 153:1 159:1 161:1 164:1 166:1 174:1 
2.164759649212204 1:1 6:1 9:1 10:1 13:1 16:1 19:1 22:1 27:1 28:1 33:1 36:1 37:1 40:1 45:1 48:1 51:1 52:1 57:1 60:1 63:1 64:1 69:1 72:1 75:1 76:1 81:1 84:1 85:1 88:1 93:1 96:1 97:1 100:1 105:1 108:1 109:1 112:1 115:1 120:1 121:1 124:1 129:1 132:1 133:1 136:1 141:1 144:1 145:1 148:1 153:1 156:1 159:1 160:1 165:1 166:1 171:1 172:1 177:1 178:1 
10 9:1 11:1 14:1 17:1 27:1 28:1 33:1 34:1 41:1 46:1 62:1 65:1 74:1 80:1 82:1 85:1 91:1 99:1 108:1 109:1 116:1 118:1 121:1 126:1 128:1 130:1 135:1 136:1 141:1 150:1 153:1 154:1 157:1 160:1 163:1 166:1 172:1 180:1 
10 5:1 8:1 15:1 18:1 21:1 29:1 31:1 39:1 41:1 44:1 46:1 56:1 62:1 65:1 72:1 74:1 77:1 83:1 85:1 90:1 92:1 95:1 101:1 104:1 107:1 111:1 112:1 117:1 121:1 124:1 129:1 131:1 138:1 141:1 144:1 145:1 148:1 154:1 158:1 160:1 165:1 168:1 170:1 172:1 176:1 179:1 
9.541986142627767 3:1 6:1 7:1 10:1 15:1 16:1 21:1 24:1 27:1 28:1 31:1 38:1 41:1 44:1 46:1 53:1 55:1 58:1 61:1 66:1 71:1 73:1 78:1 80:1 83:1 87:1 93:1 99:1 102:1 105:1 108:1 113:1 120:1 122:1 124:1 127:1 135:1 138:1 144:1 145:1 148:1 156:1 158:1 161:1 163:1 166:1 169:1 174:1 175:1 
3.115929084704256 4:1 8:1 11:1 13:1 17:1 19:1 26:1 31:1 35:1 41:1 44:1 46:1 51:1 53:1 57:1 58:1 62:1 65:1 68:1 70:1 74:1 77:1 93:1 94:1 97:1 102:1 110:1 114:1 120:1 123:1 129:1 131:1 134:1 136:1 139:1 146:1 148:1 153:1 159:1 162:1 163:1 170:1 172:1 175:1 180:1 
10 3:1 4:1 8:1 12:1 15:1 20:1 27:1 30:1 33:1 34:1 39:1 40:1 45:1 48:1 50:1 53:1 55:1 59:1 61:1 69:1 70:1 75:1 83:1 90:1 93:1 95:1 98:1 105:1 108:1 112:1 120:1 126:1 129:1 132:1 135:1 138:1 141:1 143:1 146:1 150:1 153:1 156:1 159:1 162:1 164:1 167:1 174:1 176:1 179:1 
10 1:1 6:1 9:1 11:1 13:1 17:1 20:1 26:1 32:1 35:1 39:1 42:1 45:1 47:1 49:1 53:1 56:1 59:1 62:1 65:1 67:1 70:1 77:1 81:1 83:1 85:1 92:1 101:1 110:1 112:1 117:1 119:1 123:1 124:1 128:1 130:1 137:1 140:1 142:1 146:1 159:1 162:1 165:1 166:1 169:1 173:1 175:1 
2.047267633780394 3:1 4:1 20:1 22:1 26:1 29:1 39:1 40:1 44:1 47:1 50:1 53:1 60:1 65:1 67:1 71:1 78:1 84:1 90:1 91:1 94:1 98:1 100:1 104:1 111:1 112:1 115:1 120:1 122:1 134:1 147:1 150:1 151:1 155:1 157:1 160:1 165:1 168:1 170:1 172:1 176:1 179:1 
10 2:1 4:1 11:1 13:1 18:1 22:1 27:1 28:1 38:1 40:1 44:1 52:1 59:1 61:1 65:1 67:1 75:1 78:1 82:1 85:1 90:1 92:1 96:1 99:1 102:1 103:1 111:1 116:1 118:1 122:1 128:1 130:1 135:1 138:1 140:1 143:1 145:1 149:1 153:1 156:1 159:1 163:1 166:1 169:1 178:1 
10 2:1 6:1 12:1 15:1 16:1 21:1 24:1 26:1 29:1 33:1 34:1 38:1 40:1 47:1 49:1 52:1 56:1 60:1 63:1 65:1 68:1 75:1 77:1 81:1 83:1 85:1 90:1 93:1 96:1 102:1 104:1 111:1 114:1 115:1 123:1 124:1 129:1 131:1 138:1 139:1 143:1 146:1 149:1 156:1 159:1 161:1 164:1 166:1 171:1 174:1 175:1 179:1 
10 3:1 7:1 20:1 22:1 26:1 28:1 34:1 43:1 47:1 49:1 52:1 66:1 71:1 73:1 77:1 79:1 90:1 99:1 102:1 108:1 114:1 116:1 118:1 122:1 135:1 141:1 144:1 147:1 155:1 164:1 167:1 174:1 176:1 178:1 
10 7:1 12:1 18:1 21:1 23:1 25:1 28:1 32:1 35:1 42:1 45:1 51:1 52:1 56:1 59:1 62:1 65:1 68:1 71:1 80:1 83:1 90:1 96:1 97:1 112:1 117:1 120:1 122:1 125:1 127:1 135:1 136:1 141:1 144:1 146:1 148:1 153:1 155:1 158:1 162:1 165:1 167:1 169:1 176:1 180:1 
10 3:1 6:1 8:1 11:1 14:1 17:1 20:1 22:1 26:1 29:1 36:1 39:1 45:1 48:1 49:1 52:1 57:1 59:1 62:1 65:1 71:1 76:1 80:1 83:1 90:1 93:1 99:1 105:1 107:1 111:1 114:1 117:1 120:1 121:1 126:1 128:1 132:1 133:1 138:1 141:1 152:1 161:1 166:1 170:1 174:1 176:1 178:1 
10 6:1 8:1 10:1 17:1 20:1 22:1 25:1 37:1 40:1 44:1 52:1 55:1 59:1 65:1 73:1 77:1 80:1 85:1 101:1 108:1 110:1 112:1 117:1 119:1 126:1 128:1 134:1 137:1 140:1 142:1 147:1 148:1 157:1 161:1 167:1 170:1 179:1 
0.1599857183188775 6:1 9:1 12:1 13:1 18:1 21:1 24:1 25:1 29:1 32:1 34:1 37:1 40:1 45:1 48:1 50:1 54:1 57:1 59:1 62:1 64:1 69:1 72:1 73:1 79:1 85:1 88:1 92:1 99:1 100:1 104:1 113:1 115:1 119:1 122:1 124:1 132:1 134:1 136:1 139:1 153:1 159:1 164:1 173:1 176:1 
10 1:1 4:1 10:1 17:1 23:1 25:1 28:1 31:1 36:1 37:1 40:1 46:1 49:1 54:1 56:1 59:1 61:1 65:1 71:1 81:1 82:1 85:1 88:1 98:1 101:1 103:1 106:1 111:1 115:1 120:1 123:1 124:1 133:1 152:1 157:1 160:1 163:1 169:1 175:1 180:1 
10 2:1 4:1 8:1 10:1 15:1 17:1 20:1 33:1 39:1 44:1 47:1 49:1 52:1 57:1 59:1 61:1 66:1 69:1 70:1 75:1 78:1 81:1 83:1 85:1 90:1 92:1 96:1 97:1 102:1 105:1 109:1 114:1 120:1 121:1 124:1 129:1 130:1 135:1 136:1 140:1 143:1 146:1 148:1 153:1 156:1 158:1 162:1 164:1 169:1 173:1 176:1 
0.6993954046226034 3:1 5:1 8:1 11:1 18:1 21:1 32:1 34:1 37:1 40:1 45:1 46:1 50:1 52:1 55:1 68:1 71:1 73:1 76:1 81:1 84:1 90:1 91:1 95:1 97:1 108:1 109:1 115:1 126:1 128:1 130:1 133:1 136:1 141:1 142:1 145:1 149:1 152:1 159:1 162:1 164:1 171:1 175:1 179:1 
10 5:1 8:1 11:1 14:1 18:1 19:1 24:1 26:1 29:1 32:1 38:1 40:1 45:1 47:1 49:1 53:1 55:1 60:1 62:1 64:1 69:1 71:1 78:1 80:1 84:1 85:1 90:1 91:1 96:1 97:1 104:1 113:1 115:1 118:1 122:1 124:1 132:1 135:1 137:1 141:1 142:1 147:1 150:1 153:1 154:1 161:1 163:1 168:1 170:1 174:1 176:1 178:1 
0.9008095097656034 1:1 12:1 21:1 22:1 25:1 31:1 39:1 40:1 43:1 48:1 50:1 52:1 62:1 65:1 68:1 71:1 73:1 76:1 79:1 83:1 86:1 93:1 94:1 97:1 101:1 103:1 107:1 110:1 112:1 117:1 119:1 121:1 126:1 132:1 135:1 136:1 143:1 148:1 154:1 162:1 163:1 166:1 170:1 172:1 177:1 178:1 
9.626031041909139 3:1 4:1 9:1 11:1 17:1 24:1 26:1 28:1 33:1 36:1 38:1 45:1 46:1 49:1 54:1 55:1 63:1 68:1 72:1 74:1 76:1 81:1 83:1 90:1 95:1 97:1 102:1 104:1 108:1 111:1 114:1 115:1 123:1 126:1 129:1 132:1 135:1 137:1 139:1 143:1 147:1 149:1 159:1 161:1 168:1 169:1 173:1 177:1 179:1 
10 2:1 6:1 9:1 10:1 14:1 17:1 19:1 24:1 26:1 32:1 34:1 42:1 45:1 47:1 50:1 59:1 63:1 66:1 68:1 72:1 75:1 77:1 83:1 86:1 88:1 93:1 95:1 99:1 100:1 105:1 107:1 110:1 114:1 120:1 122:1 126:1 128:1 132:1 134:1 140:1 147:1 149:1 151:1 156:1 158:1 161:1 168:1 170:1 172:1 176:1 178:1 
10 3:1 5:1 11:1 17:1 20:1 22:1 26:1 29:1 36:1 38:1 47:1 59:1 66:1 72:1 74:1 77:1 93:1 95:1 99:1 100:1 110:1 117:1 119:1 130:1 135:1 141:1 143:1 146:1 148:1 152:1 155:1 157:1 162:1 163:1 166:1 171:1 172:1 178:1 
10 2:1 4:1 12:1 13:1 16:1 21:1 23:1 36:1 37:1 42:1 48:1 49:1 52:1 57:1 59:1 65:1 74:1 77:1 84:1 87:1 90:1 93:1 94:1 98:1 100:1 103:1 111:1 117:1 120:1 123:1 125:1 134:1 136:1 139:1 147:1 152:1 154:1 157:1 162:1 163:1 166:1 174:1 180:1 
10 5:1 7:1 12:1 15:1 16:1 25:1 36:1 39:1 42:1 43:1 47:1 60:1 62:1 64:1 69:1 70:1 73:1 77:1 83:1 90:1 92:1 94:1 99:1 100:1 105:1 119:1 121:1 126:1 127:1 130:1 135:1 137:1 140:1 152:1 154:1 158:1 165:1 167:1 170:1 174:1 176:1 178:1 
5.897154749122357 3:1 6:1 8:1 25:1 28:1 33:1 35:1 41:1 47:1 49:1 54:1 58:1 67:1 75:1 76:1 81:1 82:1 93:1 99:1 100:1 110:1 117:1 121:1 124:1 127:1 131:1 134:1 137:1 139:1 145:1 159:1 161:1 167:1 169:1 174:1 175:1 178:1 
10 5:1 7:1 15:1 17:1 19:1 30:1 31:1 34:1 38:1 41:1 43:1 46:1 49:1 52:1 56:1 62:1 64:1 69:1 72:1 74:1 77:1 81:1 85:1 88:1 93:1 96:1 97:1 100:1 103:1 108:1 111:1 113:1 126:1 127:1 130:1 135:1 138:1 141:1 144:1 146:1 148:1 153:1 159:1 162:1 166:1 169:1 173:1 
10 1:1 5:1 7:1 13:1 21:1 24:1 26:1 31:1 36:1 38:1 41:1 43:1 48:1 50:1 62:1 65:1 67:1 71:1 74:1 76:1 80:1 83:1 85:1 97:1 106:1 109:1 112:1 118:1 123:1 126:1 129:1 130:1 133:1 140:1 143:1 155:1 158:1 161:1 164:1 166:1 177:1 179:1 
10 8:1 11:1 15:1 16:1 19:1 24:1 25:1 29:1 32:1 41:1 43:1 48:1 49:1 52:1 55:1 58:1 63:1 64:1 67:1 71:1 74:1 76:1 81:1 83:1 85:1 89:1 91:1 97:1 100:1 108:1 109:1 114:1 115:1 119:1 121:1 125:1 128:1 130:1 136:1 139:1 142:1 147:1 148:1 151:1 156:1 165:1 168:1 173:1 180:1 
10 2:1 4:1 7:1 11:1 14:1 17:1 19:1 24:1 26:1 31:1 39:1 42:1 50:1 56:1 62:1 66:1 68:1 70:1 73:1 78:1 81:1 84:1 85:1 88:1 93:1 98:1 101:1 111:1 113:1 115:1 118:1 123:1 125:1 130:1 133:1 143:1 156:1 157:1 161:1 164:1 171:1 180:1 
10 3:1 4:1 9:1 11:1 17:1 19:1 40:1 43:1 46:1 49:1 52:1 59:1 62:1 64:1 67:1 81:1 85:1 89:1 91:1 100:1 105:1 106:1 110:1 115:1 118:1 121:1 125:1 129:1 135:1 136:1 139:1 142:1 151:1 158:1 164:1 172:1 
10 1:1 5:1 7:1 12:1 14:1 19:1 22:1 25:1 28:1 35:1 38:1 48:1 50:1 53:1 60:1 66:1 67:1 70:1 78:1 79:1 82:1 85:1 88:1 93:1 94:1 97:1 102:1 105:1 106:1 109:1 112:1 124:1 135:1 136:1 140:1 142:1 147:1 148:1 151:1 155:1 157:1 162:1 164:1 166:1 169:1 172:1 180:1 
9.780939943737765 2:1 4:1 7:1 21:1 23:1 26:1 29:1 32:1 34:1 39:1 40:1 43:1 50:1 58:1 62:1 65:1 69:1 72:1 74:1 79:1 83:1 85:1 92:1 99:1 102:1 106:1 110:1 112:1 115:1 118:1 123:1 126:1 129:1 131:1 133:1 136:1 139:1 147:1 148:1 153:1 156:1 159:1 160:1 164:1 167:1 173:1 178:1 
10 2:1 4:1 9:1 10:1 13:1 16:1 21:1 22:1 26:1 28:1 31:1 36:1 41:1 48:1 51:1 55:1 68:1 71:1 83:1 85:1 90:1 93:1 94:1 98:1 104:1 107:1 110:1 120:1 121:1 126:1 131:1 133:1 142:1 145:1 148:1 151:1 154:1 157:1 160:1 163:1 170:1 179:1 
10 2:1 4:1 11:1 18:1 24:1 26:1 29:1 33:1 36:1 38:1 43:1 47:1 54:1 56:1 59:1 62:1 65:1 67:1 71:1 74:1 76:1 84:1 85:1 89:1 92:1 95:1 99:1 101:1 105:1 111:1 113:1 120:1 122:1 124:1 129:1 132:1 135:1 138:1 141:1 146:1 149:1 156:1 158:1 161:1 165:1 168:1 170:1 173:1 176:1 
10 3:1 14:1 16:1 21:1 27:1 33:1 35:1 38:1 47:1 50:1 53:1 63:1 64:1 67:1 71:1 74:1 84:1 85:1 89:1 91:1 95:1 97:1 100:1 103:1 108:1 112:1 120:1 121:1 124:1 133:1 137:1 148:1 152:1 162:1 165:1 167:1 171:1 174:1 175:1 180:1 
7.420224017157618 11:1 15:1 21:1 23:1 35:1 45:1 47:1 59:1 62:1 65:1 69:1 83:1 93:1 95:1 107:1 119:1 131:1 143:1 147:1 158:1 170:1 172:1 180:1 
10 3:1 4:1 8:1 11:1 18:1 20:1 22:1 27:1 29:1 31:1 35:1 38:1 42:1 45:1 47:1 54:1 57:1 58:1 62:1 66:1 67:1 72:1 75:1 77:1 80:1 84:1 85:1 90:1 92:1 94:1 99:1 100:1 107:1 111:1 113:1 116:1 119:1 125:1 127:1 130:1 135:1 138:1 141:1 143:1 147:1 150:1 152:1 154:1 157:1 162:1 163:1 166:1 171:1 173:1 175:1 180:1 
10 1:1 6:1 8:1 10:1 15:1 18:1 31:1 35:1 38:1 40:1 45:1 50:1 53:1 55:1 59:1 61:1 66:1 67:1 71:1 76:1 80:1 83:1 86:1 90:1 91:1 96:1 97:1 100:1 104:1 107:1 109:1 113:1 116:1 123:1 126:1 129:1 132:1 133:1 138:1 140:1 142:1 150:1 152:1 159:1 160:1 163:1 166:1 169:1 173:1 175:1 179:1 
5.222602312619526 1:1 11:1 13:1 16:1 19:1 23:1 25:1 30:1 32:1 36:1 38:1 41:1 47:1 49:1 54:1 55:1 59:1 64:1 68:1 77:1 79:1 93:1 96:1 100:1 104:1 106:1 109:1 112:1 116:1 118:1 121:1 126:1 127:1 130:1 137:1 144:1 147:1 148:1 151:1 154:1 157:1 162:1 165:1 170:1 173:1 179:1 
10 2:1 6:1 9:1 15:1 21:1 23:1 26:1 30:1 33:1 36:1 38:1 44:1 47:1 54:1 55:1 63:1 64:1 68:1 71:1 74:1 80:1 82:1 85:1 90:1 93:1 96:1 97:1 101:1 110:1 113:1 116:1 118:1 123:1 125:1 127:1 131:1 134:1 139:1 143:1 145:1 148:1 152:1 154:1 157:1 160:1 165:1 166:1 170:1 178:1 
10 1:1 18:1 23:1 25:1 33:1 35:1 42:1 45:1 48:1 49:1 54:1 57:1 58:1 61:1 69:1 83:1 87:1 90:1 93:1 98:1 100:1 106:1 110:1 114:1 117:1 118:1 123:1 129:1 135:1 137:1 144:1 147:1 148:1 153:1 154:1 157:1 162:1 168:1 169:1 180:1 
10 3:1 4:1 8:1 10:1 13:1 16:1 30:1 36:1 38:1 43:1 47:1 50:1 53:1 60:1 63:1 68:1 76:1 80:1 83:1 90:1 93:1 96:1 97:1 101:1 103:1 107:1 110:1 117:1 120:1 123:1 126:1 127:1 131:1 133:1 137:1 144:1 145:1 148:1 152:1 159:1 162:1 168:1 170:1 177:1 178:1 
10 1:1 4:1 12:1 13:1 18:1 19:1 29:1 35:1 37:1 43:1 60:1 63:1 68:1 73:1 76:1 81:1 84:1 85:1 91:1 97:1 102:1 105:1 106:1 112:1 116:1 118:1 123:1 136:1 140:1 142:1 147:1 153:1 156:1 159:1 165:1 168:1 171:1 176:1 
10 2:1 4:1 12:1 13:1 21:1 24:1 27:1 33:1 36:1 42:1 44:1 51:1 52:1 57:1 60:1 66:1 67:1 77:1 81:1 83:1 86:1 88:1 93:1 94:1 97:1 100:1 105:1 113:1 117:1 126:1 128:1 134:1 140:1 143:1 153:1 156:1 157:1 162:1 164:1 167:1 169:1 174:1 177:1 178:1 
10 2:1 5:1 8:1 11:1 16:1 21:1 22:1 30:1 31:1 34:1 39:1 44:1 50:1 53:1 55:1 63:1 64:1 69:1 71:1 76:1 80:1 82:1 85:1 90:1 93:1 96:1 98:1 101:1 108:1 111:1 117:1 121:1 128:1 131:1 133:1 138:1 141:1 147:1 148:1 155:1 160:1 165:1 169:1 172:1 
10 5:1 9:1 10:1 18:1 21:1 23:1 27:1 29:1 32:1 37:1 42:1 45:1 46:1 51:1 56:1 59:1 61:1 69:1 70:1 73:1 76:1 82:1 86:1 90:1 93:1 97:1 101:1 103:1 108:1 111:1 113:1 122:1 125:1 129:1 132:1 134:1 138:1 139:1 143:1 147:1 150:1 151:1 159:1 161:1 164:1 167:1 170:1 174:1 176:1 179:1 
10 2:1 4:1 9:1 10:1 15:1 17:1 24:1 26:1 30:1 31:1 36:1 39:1 40:1 45:1 46:1 51:1 54:1 55:1 58:1 65:1 71:1 74:1 78:1 81:1 84:1 85:1 90:1 91:1 94:1 98:1 102:1 105:1 108:1 112:1 120:1 121:1 126:1 132:1 138:1 139:1 144:1 150:1 153:1 155:1 159:1 161:1 166:1 172:1 175:1 179:1 
10 2:1 9:1 12:1 14:1 17:1 26:1 29:1 36:1 39:1 40:1 44:1 46:1 51:1 53:1 55:1 60:1 63:1 66:1 69:1 72:1 74:1 80:1 83:1 90:1 93:1 96:1 97:1 107:1 110:1 117:1 120:1 123:1 134:1 137:1 139:1 144:1 147:1 151:1 154:1 159:1 165:1 166:1 
10 2:1 5:1 11:1 13:1 24:1 25:1 34:1 37:1 43:1 47:1 49:1 56:1 58:1 65:1 71:1 73:1 77:1 79:1 83:1 95:1 97:1 105:1 106:1 111:1 119:1 128:1 131:1 133:1 146:1 148:1 151:1 154:1 159:1 160:1 164:1 170:1 172:1 176:1 
10 1:1 5:1 8:1 14:1 16:1 19:1 22:1 33:1 34:1 37:1 41:1 45:1 46:1 55:1 58:1 61:1 64:1 67:1 77:1 79:1 82:1 85:1 90:1 92:1 94:1 100:1 105:1 107:1 110:1 113:1 120:1 121:1 124:1 127:1 132:1 133:1 138:1 139:1 142:1 145:1 150:1 153:1 154:1 158:1 160:1 163:1 168:1 171:1 172:1 176:1 179:1 
10 3:1 5:1 8:1 11:1 14:1 18:1 20:1 24:1 26:1 29:1 34:1 38:1 45:1 46:1 51:1 57:1 59:1 65:1 67:1 72:1 78:1 79:1 82:1 90:1 93:1 94:1 97:1 102:1 104:1 106:1 111:1 113:1 126:1 130:1 134:1 138:1 140:1 143:1 145:1 150:1 152:1 156:1 163:1 171:1 174:1 180:1 
10 2:1 6:1 9:1 11:1 14:1 17:1 24:1 27:1 31:1 38:1 41:1 43:1 53:1 56:1 60:1 63:1 64:1 69:1 72:1 73:1 81:1 90:1 96:1 98:1 100:1 105:1 108:1 110:1 117:1 118:1 123:1 126:1 128:1 135:1 138:1 141:1 144:1 147:1 149:1 151:1 159:1 161:1 163:1 167:1 169:1 173:1 176:1 180:1 
10 9:1 12:1 13:1 16:1 19:1 22:1 25:1 29:1 34:1 37:1 40:1 45:1 46:1 53:1 65:1 71:1 73:1 76:1 79:1 82:1 88:1 93:1 97:1 100:1 108:1 109:1 112:1 115:1 123:1 128:1 133:1 141:1 142:1 153:1 154:1 157:1 160:1 165:1 167:1 175:1 178:1 
10 8:1 11:1 16:1 19:1 24:1 25:1 29:1 32:1 35:1 38:1 50:1 52:1 56:1 61:1 70:1 73:1 78:1 79:1 84:1 85:1 88:1 97:1 100:1 103:1 106:1 109:1 118:1 124:1 129:1 131:1 138:1 146:1 149:1 155:1 158:1 167:1 169:1 174:1 177:1 178:1 
10 3:1 5:1 8:1 14:1 20:1 23:1 27:1 30:1 32:1 41:1 44:1 48:1 53:1 60:1 62:1 65:1 69:1 72:1 73:1 77:1 80:1 82:1 85:1 90:1 92:1 94:1 98:1 101:1 108:1 110:1 112:1 116:1 119:1 126:1 128:1 132:1 134:1 141:1 143:1 145:1 150:1 152:1 156:1 161:1 165:1 166:1 170:1 
7.386007674675906 3:1 5:1 18:1 24:1 25:1 30:1 31:1 37:1 40:1 43:1 46:1 50:1 56:1 62:1 65:1 80:1 83:1 91:1 95:1 98:1 100:1 106:1 110:1 113:1 115:1 119:1 132:1 133:1 137:1 139:1 143:1 147:1 149:1 158:1 160:1 163:1 168:1 171:1 172:1 178:1 
10 3:1 6:1 10:1 13:1 18:1 19:1 24:1 25:1 28:1 31:1 37:1 42:1 48:1 57:1 58:1 73:1 78:1 81:1 84:1 85:1 90:1 91:1 94:1 100:1 103:1 107:1 113:1 115:1 120:1 122:1 124:1 127:1 138:1 141:1 142:1 149:1 156:1 159:1 163:1 171:1 177:1 
3.328202402267042 1:1 4:1 9:1 11:1 18:1 19:1 27:1 30:1 32:1 35:1 38:1 45:1 47:1 49:1 54:1 56:1 63:1 65:1 72:1 74:1 81:1 87:1 90:1 92:1 94:1 98:1 100:1 105:1 111:1 113:1 115:1 119:1 125:1 132:1 135:1 136:1 140:1 142:1 147:1 153:1 155:1 157:1 162:1 165:1 166:1 169:1 174:1 176:1 179:1 
10 2:1 6:1 9:1 11:1 15:1 17:1 20:1 24:1 26:1 30:1 31:1 36:1 38:1 47:1 53:1 56:1 62:1 68:1 71:1 77:1 79:1 83:1 87:1 88:1 92:1 95:1 99:1 100:1 105:1 108:1 110:1 112:1 117:1 118:1 123:1 125:1 127:1 132:1 137:1 139:1 148:1 156:1 159:1 161:1 165:1 166:1 169:1 173:1 176:1 
10 2:1 6:1 8:1 18:1 21:1 24:1 25:1 29:1 36:1 38:1 40:1 45:1 47:1 51:1 57:1 60:1 61:1 66:1 67:1 70:1 74:1 78:1 81:1 83:1 87:1 90:1 92:1 99:1 101:1 105:1 106:1 111:1 113:1 115:1 119:1 123:1 125:1 129:1 135:1 137:1 139:1 142:1 150:1 152:1 156:1 157:1 164:1 167:1 170:1 177:1 180:1 
10 8:1 12:1 17:1 19:1 23:1 28:1 35:1 41:1 44:1 50:1 56:1 59:1 61:1 65:1 72:1 75:1 77:1 80:1 82:1 86:1 90:1 92:1 94:1 99:1 100:1 107:1 110:1 113:1 119:1 121:1 126:1 129:1 131:1 135:1 138:1 144:1 147:1 150:1 153:1 156:1 158:1 162:1 165:1 167:1 171:1 175:1 179:1 
10 3:1 4:1 8:1 12:1 13:1 21:1 22:1 27:1 30:1 36:1 37:1 41:1 43:1 48:1 53:1 55:1 59:1 63:1 66:1 67:1 72:1 75:1 76:1 82:1 85:1 90:1 91:1 98:1 100:1 103:1 111:1 113:1 116:1 119:1 125:1 127:1 136:1 139:1 142:1 147:1 149:1 151:1 156:1 158:1 161:1 165:1 168:1 174:1 178:1 
10 2:1 5:1 7:1 10:1 13:1 18:1 21:1 23:1 27:1 30:1 33:1 34:1 37:1 42:1 43:1 51:1 54:1 60:1 63:1 66:1 68:1 70:1 75:1 77:1 80:1 83:1 85:1 90:1 91:1 95:1 97:1 101:1 104:1 108:1 117:1 120:1 123:1 124:1 132:1 133:1 136:1 140:1 145:1 149:1 153:1 156:1 158:1 160:1 165:1 167:1 172:1 176:1 178:1 
10 3:1 5:1 12:1 16:1 19:1 28:1 34:1 45:1 46:1 51:1 54:1 60:1 61:1 69:1 72:1 73:1 79:1 82:1 85:1 90:1 91:1 94:1 98:1 105:1 106:1 109:1 114:1 123:1 124:1 132:1 135:1 136:1 139:1 142:1 146:1 148:1 151:1 159:1 160:1 163:1 168:1 175:1 178:1 
10 2:1 9:1 10:1 14:1 16:1 21:1 22:1 25:1 33:1 34:1 37:1 41:1 44:1 51:1 53:1 55:1 60:1 61:1 65:1 68:1 71:1 78:1 80:1 84:1 86:1 90:1 93:1 95:1 100:1 104:1 109:1 113:1 115:1 118:1 122:1 125:1 127:1 132:1 133:1 138:1 140:1 144:1 145:1 150:1 153:1 155:1 158:1 160:1 165:1 171:1 172:1 177:1 
10 3:1 4:1 9:1 12:1 13:1 18:1 20:1 29:1 32:1 34:1 37:1 40:1 49:1 56:1 59:1 61:1 70:1 75:1 77:1 79:1 83:1 85:1 88:1 93:1 95:1 98:1 101:1 105:1 110:1 112:1 117:1 123:1 126:1 128:1 131:1 134:1 137:1 139:1 147:1 149:1 151:1 157:1 160:1 163:1 171:1 175:1 179:1 
9.810015879800655 3:1 6:1 10:1 18:1 19:1 24:1 25:1 28:1 35:1 40:1 45:1 48:1 50:1 52:1 57:1 60:1 63:1 66:1 68:1 70:1 75:1 78:1 81:1 84:1 85:1 90:1 97:1 101:1 103:1 108:1 113:1 116:1 119:1 133:1 137:1 139:1 144:1 145:1 151:1 156:1 157:1 160:1 163:1 166:1 169:1 173:1 175:1 180:1 
10 2:1 6:1 9:1 12:1 15:1 20:1 22:1 26:1 30:1 36:1 38:1 44:1 48:1 50:1 53:1 55:1 58:1 63:1 66:1 67:1 72:1 74:1 80:1 84:1 85:1 90:1 93:1 95:1 99:1 107:1 109:1 114:1 117:1 120:1 121:1 126:1 129:1 131:1 134:1 136:1 139:1 142:1 146:1 150:1 155:1 157:1 161:1 164:1 168:1 173:1 176:1 179:1 
5.987573726886473 2:1 5:1 8:1 10:1 14:1 17:1 21:1 27:1 29:1 36:1 38:1 45:1 48:1 51:1 52:1 56:1 59:1 66:1 68:1 70:1 75:1 78:1 84:1 88:1 93:1 94:1 99:1 100:1 105:1 108:1 111:1 114:1 117:1 120:1 122:1 125:1 128:1 135:1 136:1 140:1 144:1 146:1 150:1 152:1 154:1 159:1 160:1 164:1 167:1 170:1 172:1 177:1 
8.850322466111777 9:1 11:1 14:1 17:1 19:1 22:1 25:1 28:1 32:1 34:1 41:1 48:1 51:1 53:1 55:1 58:1 61:1 66:1 75:1 76:1 79:1 90:1 92:1 101:1 104:1 106:1 109:1 112:1 115:1 120:1 128:1 130:1 134:1 136:1 148:1 155:1 157:1 162:1 163:1 166:1 171:1 174:1 175:1 179:1 
10 2:1 5:1 8:1 15:1 16:1 24:1 25:1 28:1 33:1 36:1 38:1 40:1 44:1 47:1 57:1 60:1 63:1 66:1 68:1 77:1 80:1 83:1 90:1 92:1 95:1 99:1 101:1 103:1 110:1 113:1 119:1 125:1 128:1 131:1 134:1 140:1 142:1 147:1 150:1 151:1 154:1 159:1 162:1 165:1 168:1 169:1 173:1 180:1 
10 1:1 18:1 33:1 35:1 53:1 60:1 61:1 65:1 71:1 74:1 76:1 81:1 87:1 90:1 93:1 96:1 98:1 100:1 103:1 108:1 109:1 125:1 128:1 148:1 154:1 158:1 160:1 164:1 166:1 172:1 175:1 
10 9:1 15:1 16:1 19:1 22:1 25:1 30:1 39:1 46:1 49:1 52:1 55:1 58:1 62:1 64:1 67:1 72:1 74:1 79:1 82:1 85:1 93:1 99:1 100:1 103:1 107:1 115:1 118:1 122:1 125:1 128:1 134:1 136:1 140:1 146:1 151:1 154:1 159:1 161:1 173:1 176:1 179:1 
10 9:1 11:1 17:1 24:1 26:1 28:1 33:1 36:1 42:1 44:1 48:1 50:1 53:1 59:1 62:1 69:1 72:1 75:1 76:1 81:1 87:1 90:1 96:1 101:1 104:1 106:1 109:1 114:1 117:1 120:1 122:1 125:1 127:1 132:1 134:1 137:1 140:1 142:1 146:1 150:1 152:1 159:1 162:1 168:1 171:1 177:1 178:1 
10 6:1 7:1 12:1 13:1 18:1 19:1 27:1 28:1 31:1 36:1 37:1 44:1 47:1 49:1 54:1 65:1 67:1 77:1 83:1 86:1 91:1 95:1 97:1 105:1 109:1 114:1 116:1 126:1 128:1 131:1 133:1 138:1 140:1 145:1 152:1 155:1 158:1 162:1 163:1 167:1 173:1 175:1 
10 3:1 4:1 12:1 15:1 16:1 21:1 24:1 27:1 39:1 44:1 49:1 53:1 55:1 61:1 66:1 68:1 72:1 75:1 78:1 80:1 82:1 85:1 90:1 96:1 102:1 105:1 110:1 117:1 120:1 126:1 128:1 131:1 138:1 143:1 153:1 156:1 158:1 160:1 165:1 166:1 169:1 172:1 175:1 179:1 
10 1:1 5:1 10:1 16:1 20:1 23:1 26:1 28:1 31:1 34:1 37:1 44:1 47:1 50:1 53:1 55:1 59:1 62:1 65:1 74:1 77:1 80:1 87:1 90:1 93:1 96:1 97:1 101:1 103:1 107:1 110:1 117:1 120:1 125:1 128:1 130:1 134:1 137:1 140:1 145:1 148:1 153:1 155:1 162:1 164:1 167:1 179:1 
10 6:1 7:1 11:1 13:1 16:1 19:1 22:1 26:1 29:1 31:1 34:1 39:1 40:1 47:1 57:1 60:1 63:1 66:1 74:1 84:1 87:1 90:1 93:1 94:1 97:1 100:1 104:1 111:1 112:1 116:1 118:1 126:1 128:1 135:1 136:1 147:1 150:1 168:1 172:1 176:1 178:1 
10 1:1 4:1 11:1 14:1 26:1 38:1 40:1 45:1 47:1 54:1 57:1 58:1 63:1 69:1 74:1 77:1 83:1 85:1 90:1 93:1 94:1 99:1 101:1 104:1 106:1 111:1 113:1 116:1 119:1 122:1 124:1 128:1 131:1 134:1 142:1 147:1 148:1 151:1 154:1 157:1 162:1 163:1 171:1 
10 3:1 4:1 9:1 11:1 13:1 18:1 26:1 28:1 32:1 36:1 39:1 41:1 44:1 46:1 54:1 62:1 65:1 69:1 72:1 74:1 78:1 80:1 82:1 85:1 90:1 93:1 95:1 98:1 107:1 117:1 119:1 121:1 125:1 132:1 135:1 139:1 143:1 145:1 149:1 153:1 156:1 159:1 161:1 165:1 166:1 171:1 174:1 177:1 179:1 
10 3:1 9:1 12:1 14:1 21:1 28:1 31:1 41:1 47:1 50:1 52:1 57:1 62:1 72:1 74:1 76:1 86:1 90:1 92:1 94:1 99:1 105:1 107:1 110:1 113:1 115:1 120:1 126:1 127:1 135:1 138:1 140:1 142:1 151:1 155:1 161:1 168:1 170:1 173:1 177:1 
10 4:1 9:1 12:1 17:1 20:1 26:1 29:1 36:1 38:1 44:1 50:1 53:1 55:1 61:1 68:1 74:1 78:1 80:1 83:1 85:1 90:1 96:1 99:1 102:1 105:1 117:1 118:1 124:1 129:1 130:1 135:1 136:1 139:1 143:1 149:1 151:1 156:1 157:1 160:1 165:1 167:1 171:1 177:1 180:1 
10 3:1 4:1 7:1 12:1 14:1 16:1 21:1 30:1 32:1 37:1 40:1 48:1 49:1 52:1 57:1 61:1 72:1 73:1 76:1 79:1 82:1 90:1 93:1 94:1 99:1 100:1 108:1 110:1 113:1 118:1 123:1 125:1 127:1 131:1 134:1 137:1 140:1 142:1 146:1 148:1 153:1 155:1 157:1 162:1 169:1 173:1 175:1 180:1 
10 2:1 6:1 8:1 10:1 14:1 16:1 20:1 24:1 27:1 30:1 33:1 36:1 39:1 41:1 43:1 47:1 49:1 54:1 56:1 60:1 62:1 65:1 71:1 74:1 77:1 83:1 87:1 89:1 93:1 94:1 99:1 101:1 104:1 108:1 111:1 117:1 119:1 123:1 124:1 127:1 130:1 135:1 138:1 141:1 144:1 146:1 149:1 153:1 155:1 158:1 165:1 167:1 171:1 174:1 180:1 
10 1:1 5:1 8:1 10:1 14:1 17:1 20:1 23:1 27:1 32:1 38:1 45:1 46:1 50:1 53:1 55:1 63:1 64:1 69:1 72:1 74:1 77:1 79:1 83:1 86:1 89:1 96:1 97:1 102:1 105:1 111:1 113:1 120:1 123:1 126:1 128:1 131:1 134:1 141:1 144:1 147:1 149:1 158:1 163:1 167:1 170:1 173:1 180:1 
10 3:1 6:1 9:1 12:1 21:1 24:1 27:1 30:1 35:1 42:1 44:1 49:1 54:1 57:1 60:1 62:1 68:1 75:1 77:1 80:1 82:1 85:1 93:1 99:1 102:1 104:1 107:1 110:1 113:1 115:1 120:1 121:1 129:1 132:1 133:1 137:1 143:1 146:1 149:1 151:1 156:1 158:1 161:1 164:1 167:1 174:1 177:1 
10 6:1 9:1 12:1 14:1 21:1 23:1 25:1 32:1 35:1 42:1 44:1 51:1 54:1 55:1 62:1 66:1 69:1 70:1 75:1 76:1 80:1 84:1 90:1 93:1 96:1 97:1 102:1 103:1 109:1 113:1 119:1 122:1 125:1 131:1 135:1 136:1 141:1 142:1 145:1 148:1 153:1 156:1 157:1 160:1 165:1 166:1 169:1 174:1 175:1 179:1 
10 3:1 5:1 7:1 24:1 27:1 28:1 39:1 50:1 62:1 93:1 96:1 114:1 132:1 134:1 150:1 168:1 
2.553840788424589 1:1 5:1 8:1 18:1 21:1 22:1 48:1 51:1 63:1 79:1 82:1 87:1 91:1 94:1 97:1 100:1 103:1 109:1 112:1 117:1 126:1 128:1 139:1 151:1 154:1 160:1 172:1 175:1 
10 3:1 4:1 8:1 13:1 16:1 20:1 24:1 25:1 29:1 31:1 35:1 37:1 43:1 47:1 49:1 57:1 58:1 61:1 64:1 76:1 81:1 83:1 90:1 93:1 100:1 103:1 107:1 111:1 114:1 120:1 122:1 125:1 127:1 132:1 133:1 136:1 141:1 142:1 147:1 152:1 154:1 158:1 165:1 168:1 169:1 173:1 175:1 178:1 
10 3:1 4:1 7:1 11:1 15:1 16:1 20:1 22:1 25:1 31:1 36:1 38:1 49:1 53:1 56:1 59:1 65:1 67:1 72:1 75:1 77:1 79:1 85:1 90:1 93:1 95:1 98:1 105:1 108:1 111:1 117:1 119:1 126:1 129:1 131:1 138:1 140:1 143:1 146:1 148:1 153:1 154:1 158:1 161:1 164:1 167:1 173:1 180:1 
10 4:1 9:1 12:1 13:1 27:1 30:1 33:1 36:1 37:1 48:1 49:1 52:1 57:1 59:1 62:1 65:1 69:1 72:1 74:1 81:1 82:1 90:1 93:1 97:1 102:1 105:1 107:1 109:1 114:1 115:1 118:1 122:1 132:1 135:1 136:1 141:1 142:1 146:1 148:1 151:1 159:1 165:1 166:1 171:1 172:1 175:1 180:1 
10 7:1 10:1 15:1 21:1 23:1 28:1 33:1 42:1 48:1 49:1 64:1 70:1 74:1 76:1 82:1 85:1 88:1 93:1 96:1 98:1 101:1 103:1 108:1 109:1 112:1 117:1 119:1 126:1 131:1 138:1 139:1 144:1 147:1 149:1 151:1 154:1 161:1 163:1 171:1 172:1 
10 4:1 10:1 16:1 23:1 26:1 28:1 32:1 34:1 42:1 48:1 50:1 56:1 58:1 63:1 67:1 71:1 74:1 76:1 81:1 84:1 90:1 93:1 96:1 97:1 102:1 111:1 112:1 126:1 131:1 140:1 146:1 148:1 152:1 159:1 167:1 173:1 
10 1:1 5:1 14:1 21:1 23:1 29:1 31:1 36:1 39:1 45:1 48:1 49:1 52:1 63:1 64:1 67:1 71:1 73:1 76:1 81:1 82:1 85:1 90:1 92:1 96:1 99:1 102:1 103:1 108:1 111:1 113:1 120:1 121:1 126:1 137:1 139:1 144:1 145:1 148:1 151:1 155:1 162:1 164:1 168:1 170:1 172:1 177:1 180:1 
2.654707252110149 3:1 6:1 9:1 10:1 14:1 16:1 21:1 24:1 25:1 29:1 35:1 38:1 45:1 48:1 51:1 56:1 63:1 64:1 69:1 72:1 75:1 76:1 81:1 84:1 85:1 90:1 93:1 96:1 98:1 101:1 103:1 106:1 111:1 114:1 115:1 118:1 122:1 125:1 127:1 132:1 135:1 141:1 144:1 147:1 150:1 155:1 158:1 160:1 165:1 167:1 170:1 173:1 175:1 179:1 
8.718289990975904 2:1 5:1 12:1 13:1 17:1 19:1 24:1 26:1 28:1 35:1 37:1 41:1 43:1 51:1 54:1 55:1 58:1 63:1 65:1 68:1 70:1 76:1 84:1 85:1 93:1 95:1 97:1 102:1 104:1 107:1 111:1 112:1 116:1 119:1 126:1 129:1 130:1 134:1 137:1 140:1 143:1 145:1 149:1 152:1 156:1 157:1 162:1 163:1 166:1 170:1 173:1 176:1 179:1 
10 2:1 5:1 7:1 10:1 14:1 19:1 24:1 39:1 40:1 55:1 59:1 61:1 69:1 71:1 77:1 79:1 85:1 90:1 93:1 95:1 102:1 103:1 106:1 111:1 114:1 117:1 118:1 122:1 132:1 134:1 137:1 147:1 152:1 158:1 160:1 165:1 166:1 174:1 175:1 180:1 
10 10:1 14:1 16:1 20:1 23:1 30:1 32:1 35:1 37:1 40:1 45:1 51:1 54:1 55:1 60:1 62:1 64:1 68:1 71:1 74:1 76:1 79:1 84:1 86:1 90:1 96:1 97:1 101:1 105:1 106:1 111:1 113:1 116:1 119:1 125:1 131:1 133:1 137:1 139:1 144:1 150:1 153:1 154:1 157:1 165:1 168:1 169:1 174:1 175:1 180:1 
10 3:1 4:1 9:1 12:1 18:1 21:1 24:1 26:1 30:1 33:1 35:1 37:1 42:1 44:1 48:1 53:1 57:1 59:1 62:1 66:1 69:1 71:1 80:1 83:1 85:1 90:1 91:1 95:1 97:1 101:1 104:1 106:1 109:1 117:1 120:1 123:1 124:1 127:1 134:1 137:1 140:1 142:1 145:1 153:1 156:1 159:1 162:1 163:1 166:1 171:1 176:1 180:1 
10 3:1 6:1 7:1 15:1 18:1 19:1 22:1 25:1 29:1 33:1 36:1 38:1 49:1 53:1 56:1 60:1 63:1 66:1 67:1 72:1 79:1 83:1 85:1 89:1 91:1 96:1 99:1 102:1 105:1 107:1 110:1 114:1 117:1 119:1 122:1 126:1 129:1 131:1 135:1 138:1 141:1 144:1 147:1 149:1 153:1 154:1 157:1 162:1 165:1 166:1 170:1 176:1 180:1 
0.282078293203136 4:1 9:1 10:1 18:1 21:1 26:1 29:1 36:1 37:1 42:1 45:1 46:1 49:1 52:1 55:1 60:1 70:1 76:1 81:1 83:1 93:1 98:1 103:1 116:1 122:1 128:1 134:1 139:1 142:1 146:1 148:1 154:1 159:1 168:1 173:1 175:1 180:1 
10 1:1 4:1 9:1 10:1 13:1 21:1 23:1 31:1 35:1 37:1 40:1 46:1 49:1 52:1 56:1 62:1 68:1 71:1 77:1 80:1 82:1 87:1 90:1 93:1 98:1 107:1 110:1 117:1 120:1 121:1 128:1 130:1 134:1 136:1 139:1 143:1 147:1 149:1 152:1 155:1 161:1 164:1 167:1 170:1 174:1 175:1 179:1 
10 1:1 6:1 9:1 10:1 15:1 16:1 21:1 22:1 25:1 28:1 37:1 40:1 43:1 46:1 58:1 67:1 82:1 85:1 90:1 93:1 101:1 109:1 112:1 118:1 124:1 128:1 130:1 133:1 136:1 140:1 145:1 150:1 154:1 160:1 169:1 176:1 178:1 
10 1:1 6:1 8:1 17:1 23:1 26:1 28:1 36:1 38:1 40:1 44:1 46:1 51:1 54:1 56:1 60:1 61:1 66:1 69:1 75:1 76:1 81:1 83:1 85:1 88:1 93:1 96:1 98:1 102:1 105:1 108:1 114:1 117:1 120:1 123:1 126:1 127:1 132:1 135:1 138:1 141:1 142:1 147:1 151:1 156:1 159:1 162:1 167:1 170:1 173:1 180:1 
10 1:1 6:1 8:1 17:1 19:1 29:1 32:1 39:1 41:1 44:1 50:1 60:1 65:1 72:1 75:1 77:1 83:1 85:1 90:1 92:1 94:1 98:1 100:1 106:1 117:1 120:1 125:1 127:1 133:1 136:1 139:1 142:1 146:1 148:1 154:1 164:1 171:1 174:1 
2.076957108321819 6:1 7:1 15:1 17:1 21:1 24:1 27:1 30:1 31:1 35:1 42:1 45:1 46:1 51:1 60:1 62:1 68:1 70:1 82:1 86:1 97:1 100:1 104:1 106:1 109:1 113:1 115:1 118:1 122:1 126:1 134:1 137:1 141:1 142:1 148:1 153:1 154:1 162:1 163:1 173:1 175:1 180:1 
10 7:1 11:1 14:1 16:1 19:1 23:1 28:1 48:1 53:1 55:1 61:1 71:1 80:1 82:1 85:1 88:1 93:1 94:1 97:1 102:1 105:1 106:1 109:1 112:1 115:1 118:1 121:1 129:1 140:1 147:1 149:1 151:1 159:1 165:1 166:1 169:1 172:1 177:1 180:1 
10 2:1 6:1 7:1 11:1 15:1 17:1 19:1 24:1 25:1 29:1 32:1 35:1 38:1 40:1 47:1 50:1 53:1 55:1 59:1 66:1 69:1 72:1 75:1 76:1 80:1 87:1 90:1 93:1 95:1 98:1 100:1 105:1 106:1 110:1 112:1 117:1 119:1 122:1 129:1 135:1 136:1 141:1 144:1 146:1 148:1 153:1 158:1 160:1 165:1 167:1 174:1 177:1 
10 3:1 4:1 8:1 10:1 14:1 18:1 20:1 27:1 29:1 36:1 39:1 42:1 44:1 47:1 51:1 53:1 55:1 63:1 65:1 72:1 74:1 77:1 80:1 83:1 85:1 90:1 92:1 99:1 102:1 107:1 114:1 116:1 119:1 123:1 125:1 128:1 134:1 138:1 143:1 146:1 152:1 155:1 159:1 162:1 168:1 170:1 176:1 179:1 
10 1:1 5:1 8:1 10:1 13:1 18:1 21:1 23:1 30:1 35:1 37:1 41:1 44:1 46:1 50:1 52:1 62:1 64:1 68:1 71:1 73:1 80:1 82:1 86:1 93:1 99:1 101:1 105:1 110:1 113:1 116:1 118:1 121:1 126:1 127:1 130:1 134:1 138:1 140:1 142:1 147:1 149:1 152:1 155:1 162:1 165:1 168:1 173:1 176:1 179:1 
10 1:1 5:1 7:1 10:1 13:1 16:1 23:1 25:1 28:1 33:1 34:1 39:1 42:1 47:1 49:1 53:1 58:1 61:1 72:1 73:1 79:1 85:1 92:1 97:1 114:1 115:1 120:1 129:1 131:1 134:1 147:1 148:1 153:1 154:1 158:1 167:1 170:1 172:1 176:1 180:1 
10 3:1 6:1 8:1 11:1 15:1 17:1 20:1 23:1 30:1 34:1 38:1 41:1 44:1 50:1 62:1 64:1 68:1 71:1 83:1 86:1 89:1 94:1 97:1 100:1 105:1 106:1 110:1 113:1 116:1 121:1 124:1 127:1 134:1 141:1 142:1 147:1 150:1 151:1 154:1 161:1 163:1 166:1 170:1 172:1 177:1 180:1 
10 1:1 6:1 9:1 12:1 20:1 22:1 25:1 30:1 33:1 36:1 38:1 40:1 48:1 51:1 54:1 57:1 62:1 65:1 68:1 72:1 74:1 76:1 81:1 83:1 90:1 96:1 99:1 101:1 108:1 111:1 114:1 117:1 119:1 121:1 126:1 127:1 132:1 134:1 141:1 144:1 147:1 150:1 152:1 159:1 162:1 167:1 170:1 173:1 179:1 
0.1430673306406494 1:1 13:1 21:1 24:1 28:1 31:1 34:1 37:1 41:1 43:1 52:1 62:1 64:1 68:1 71:1 73:1 80:1 89:1 96:1 100:1 113:1 125:1 130:1 133:1 138:1 141:1 144:1 150:1 152:1 158:1 162:1 168:1 171:1 
10 1:1 4:1 7:1 11:1 18:1 21:1 24:1 27:1 29:1 32:1 39:1 40:1 45:1 46:1 50:1 54:1 56:1 59:1 62:1 65:1 72:1 75:1 77:1 80:1 82:1 90:1 93:1 94:1 98:1 101:1 105:1 107:1 116:1 119:1 122:1 124:1 130:1 134:1 137:1 144:1 147:1 149:1 155:1 162:1 167:1 170:1 172:1 175:1 180:1 
10 2:1 5:1 11:1 16:1 23:1 26:1 30:1 34:1 43:1 48:1 51:1 56:1 69:1 70:1 75:1 76:1 81:1 83:1 90:1 93:1 94:1 102:1 104:1 106:1 110:1 113:1 115:1 126:1 129:1 131:1 137:1 140:1 147:1 159:1 160:1 163:1 166:1 174:1 175:1 180:1 
10 3:1 6:1 7:1 10:1 15:1 16:1 20:1 22:1 25:1 28:1 33:1 39:1 40:1 45:1 46:1 53:1 56:1 68:1 74:1 76:1 79:1 82:1 85:1 88:1 91:1 94:1 97:1 100:1 103:1 106:1 109:1 112:1 115:1 118:1 122:1 135:1 138:1 141:1 147:1 150:1 151:1 154:1 159:1 162:1 168:1 171:1 174:1 177:1 
10 1:1 5:1 8:1 14:1 19:1 23:1 26:1 28:1 33:1 34:1 41:1 43:1 50:1 53:1 59:1 61:1 64:1 69:1 72:1 74:1 78:1 80:1 87:1 90:1 91:1 96:1 98:1 102:1 105:1 108:1 111:1 113:1 119:1 122:1 125:1 132:1 134:1 141:1 144:1 147:1 149:1 156:1 158:1 164:1 167:1 169:1 175:1 180:1 
10 2:1 9:1 10:1 15:1 16:1 21:1 24:1 25:1 29:1 32:1 34:1 41:1 43:1 54:1 60:1 65:1 68:1 70:1 78:1 84:1 87:1 90:1 92:1 95:1 97:1 100:1 105:1 106:1 113:1 119:1 122:1 124:1 128:1 132:1 134:1 136:1 141:1 144:1 146:1 149:1 153:1 154:1 158:1 160:1 164:1 167:1 169:1 176:1 180:1 
10 6:1 9:1 10:1 15:1 18:1 19:1 22:1 25:1 35:1 41:1 45:1 46:1 51:1 54:1 60:1 61:1 65:1 68:1 75:1 78:1 79:1 83:1 85:1 90:1 93:1 96:1 98:1 102:1 105:1 108:1 110:1 117:1 120:1 123:1 125:1 129:1 130:1 135:1 138:1 139:1 143:1 147:1 149:1 155:1 158:1 161:1 165:1 168:1 171:1 174:1 176:1 179:1 
10 6:1 9:1 10:1 14:1 18:1 21:1 25:1 28:1 32:1 34:1 39:1 42:1 43:1 46:1 54:1 58:1 66:1 67:1 72:1 73:1 78:1 87:1 90:1 93:1 99:1 101:1 104:1 106:1 109:1 112:1 115:1 119:1 129:1 135:1 138:1 140:1 143:1 147:1 149:1 152:1 155:1 162:1 166:1 170:1 172:1 175:1 180:1 
10 2:1 6:1 9:1 12:1 14:1 16:1 19:1 24:1 29:1 31:1 35:1 42:1 44:1 48:1 50:1 56:1 59:1 62:1 69:1 75:1 76:1 79:1 83:1 85:1 90:1 92:1 95:1 98:1 103:1 111:1 112:1 115:1 121:1 124:1 127:1 132:1 135:1 138:1 141:1 142:1 148:1 152:1 155:1 159:1 160:1 165:1 168:1 174:1 175:1 
10 3:1 9:1 10:1 13:1 17:1 23:1 30:1 33:1 34:1 38:1 45:1 48:1 49:1 52:1 57:1 60:1 61:1 65:1 68:1 73:1 78:1 85:1 90:1 93:1 96:1 99:1 102:1 108:1 110:1 112:1 115:1 118:1 121:1 124:1 129:1 131:1 133:1 138:1 141:1 142:1 147:1 150:1 152:1 154:1 159:1 162:1 167:1 169:1 174:1 177:1 
10 1:1 9:1 11:1 20:1 22:1 25:1 28:1 33:1 36:1 38:1 47:1 52:1 57:1 60:1 62:1 65:1 68:1 70:1 77:1 80:1 83:1 87:1 90:1 93:1 94:1 97:1 102:1 108:1 115:1 118:1 126:1 127:1 132:1 134:1 141:1 147:1 150:1 151:1 155:1 162:1 165:1 173:1 175:1 179:1 
0.7153057969521313 11:1 35:1 37:1 42:1 44:1 46:1 49:1 53:1 56:1 58:1 66:1 71:1 74:1 76:1 79:1 84:1 87:1 90:1 91:1 95:1 98:1 105:1 107:1 109:1 114:1 123:1 126:1 130:1 141:1 142:1 149:1 159:1 162:1 164:1 166:1 170:1 173:1 175:1 179:1 
10 2:1 4:1 8:1 12:1 21:1 24:1 27:1 28:1 33:1 36:1 41:1 45:1 46:1 51:1 54:1 56:1 58:1 63:1 66:1 68:1 70:1 75:1 76:1 83:1 85:1 89:1 99:1 100:1 105:1 107:1 110:1 113:1 115:1 120:1 122:1 124:1 129:1 135:1 139:1 142:1 147:1 150:1 158:1 168:1 172:1 179:1 
10 5:1 10:1 13:1 25:1 28:1 33:1 34:1 37:1 41:1 43:1 46:1 50:1 55:1 58:1 62:1 65:1 68:1 85:1 88:1 96:1 97:1 100:1 106:1 109:1 112:1 119:1 121:1 124:1 128:1 131:1 141:1 145:1 156:1 157:1 162:1 171:1 173:1 178:1 
10 3:1 4:1 11:1 16:1 20:1 27:1 32:1 37:1 40:1 46:1 53:1 61:1 64:1 69:1 72:1 75:1 77:1 85:1 90:1 94:1 113:1 119:1 121:1 126:1 132:1 133:1 137:1 150:1 156:1 159:1 162:1 170:1 
10 3:1 8:1 11:1 13:1 17:1 24:1 30:1 31:1 35:1 38:1 41:1 44:1 51:1 59:1 62:1 65:1 67:1 75:1 77:1 84:1 85:1 89:1 92:1 99:1 105:1 116:1 119:1 125:1 128:1 131:1 134:1 136:1 141:1 146:1 148:1 155:1 167:1 177:1 
10 2:1 4:1 7:1 12:1 13:1 16:1 21:1 23:1 26:1 28:1 31:1 34:1 39:1 41:1 43:1 48:1 54:1 55:1 58:1 63:1 66:1 75:1 77:1 79:1 84:1 85:1 90:1 91:1 94:1 110:1 118:1 122:1 127:1 130:1 133:1 136:1 144:1 146:1 149:1 151:1 154:1 159:1 162:1 163:1 173:1 175:1 
10 2:1 4:1 14:1 20:1 22:1 26:1 28:1 35:1 42:1 50:1 56:1 61:1 64:1 68:1 79:1 82:1 86:1 93:1 94:1 97:1 102:1 116:1 121:1 124:1 134:1 140:1 146:1 149:1 151:1 156:1 158:1 168:1 169:1 172:1 175:1 180:1 
6.008262351353428 3:1 8:1 12:1 17:1 20:1 26:1 28:1 32:1 36:1 39:1 46:1 50:1 56:1 69:1 70:1 75:1 78:1 84:1 87:1 90:1 91:1 98:1 111:1 113:1 116:1 123:1 124:1 131:1 144:1 146:1 148:1 151:1 154:1 157:1 164:1 166:1 171:1 174:1 175:1 180:1 
10 1:1 4:1 12:1 15:1 16:1 22:1 27:1 28:1 32:1 35:1 37:1 42:1 44:1 46:1 50:1 56:1 58:1 63:1 64:1 68:1 71:1 73:1 77:1 82:1 98:1 100:1 105:1 109:1 116:1 123:1 140:1 148:1 151:1 155:1 161:1 163:1 168:1 171:1 174:1 176:1 179:1 
10 3:1 4:1 9:1 16:1 19:1 22:1 27:1 28:1 31:1 34:1 38:1 41:1 44:1 59:1 62:1 64:1 75:1 76:1 81:1 84:1 85:1 90:1 93:1 99:1 102:1 103:1 108:1 111:1 120:1 122:1 124:1 128:1 131:1 137:1 140:1 145:1 148:1 153:1 156:1 158:1 161:1 164:1 166:1 174:1 175:1 178:1 
5.477610347837694 3:1 5:1 9:1 12:1 15:1 17:1 20:1 24:1 27:1 28:1 33:1 35:1 37:1 41:1 45:1 48:1 51:1 53:1 55:1 59:1 62:1 65:1 67:1 72:1 74:1 76:1 84:1 87:1 90:1 93:1 96:1 100:1 104:1 111:1 113:1 119:1 121:1 125:1 127:1 131:1 133:1 138:1 139:1 144:1 147:1 148:1 152:1 156:1 158:1 165:1 167:1 173:1 175:1 180:1 
10 3:1 9:1 12:1 15:1 16:1 20:1 23:1 25:1 29:1 31:1 36:1 38:1 41:1 43:1 48:1 51:1 52:1 56:1 60:1 63:1 65:1 68:1 71:1 80:1 82:1 85:1 90:1 91:1 97:1 102:1 105:1 108:1 111:1 113:1 120:1 121:1 126:1 129:1 132:1 133:1 138:1 141:1 143:1 146:1 148:1 151:1 156:1 159:1 162:1 165:1 166:1 169:1 173:1 175:1 
4.262060615374573 4:1 14:1 24:1 25:1 29:1 31:1 39:1 40:1 45:1 46:1 49:1 52:1 55:1 62:1 64:1 69:1 73:1 76:1 87:1 90:1 91:1 95:1 98:1 100:1 105:1 108:1 110:1 114:1 116:1 120:1 123:1 129:1 132:1 134:1 140:1 150:1 152:1 155:1 162:1 166:1 169:1 176:1 179:1 
10 2:1 7:1 11:1 13:1 23:1 26:1 41:1 44:1 51:1 57:1 58:1 61:1 64:1 70:1 78:1 84:1 85:1 90:1 96:1 97:1 103:1 106:1 115:1 118:1 121:1 125:1 127:1 131:1 142:1 147:1 148:1 152:1 155:1 162:1 163:1 173:1 180:1 
10 2:1 5:1 7:1 10:1 14:1 16:1 21:1 23:1 25:1 29:1 32:1 34:1 37:1 43:1 50:1 59:1 68:1 74:1 77:1 80:1 83:1 85:1 90:1 96:1 97:1 102:1 104:1 106:1 113:1 117:1 119:1 124:1 128:1 130:1 135:1 137:1 140:1 153:1 155:1 157:1 160:1 168:1 170:1 176:1 
10 2:1 5:1 8:1 11:1 17:1 29:1 31:1 34:1 42:1 47:1 49:1 54:1 56:1 59:1 68:1 70:1 75:1 78:1 80:1 82:1 85:1 90:1 96:1 99:1 102:1 105:1 106:1 109:1 112:1 117:1 118:1 123:1 125:1 127:1 138:1 140:1 150:1 153:1 155:1 161:1 164:1 166:1 177:1 179:1 
10 3:1 8:1 10:1 14:1 16:1 19:1 26:1 32:1 39:1 40:1 50:1 53:1 63:1 65:1 67:1 72:1 73:1 81:1 84:1 85:1 93:1 97:1 102:1 108:1 109:1 112:1 120:1 122:1 134:1 137:1 139:1 144:1 145:1 150:1 156:1 159:1 160:1 163:1 168:1 176:1 179:1 
10 3:1 4:1 7:1 10:1 15:1 21:1 23:1 26:1 30:1 31:1 36:1 37:1 44:1 47:1 54:1 56:1 58:1 63:1 66:1 68:1 75:1 81:1 83:1 86:1 90:1 95:1 98:1 102:1 105:1 111:1 112:1 117:1 120:1 123:1 126:1 129:1 130:1 138:1 140:1 142:1 156:1 157:1 162:1 164:1 171:1 172:1 176:1 
10 6:1 14:1 17:1 24:1 26:1 29:1 37:1 40:1 44:1 51:1 52:1 60:1 61:1 65:1 67:1 78:1 83:1 93:1 99:1 100:1 103:1 106:1 111:1 116:1 119:1 128:1 134:1 137:1 144:1 147:1 149:1 155:1 157:1 164:1 167:1 174:1 177:1 179:1 
10 8:1 12:1 14:1 17:1 19:1 22:1 26:1 28:1 33:1 35:1 38:1 45:1 48:1 54:1 58:1 66:1 69:1 71:1 75:1 77:1 80:1 86:1 90:1 93:1 94:1 98:1 100:1 105:1 107:1 109:1 112:1 116:1 120:1 125:1 130:1 137:1 141:1 143:1 146:1 148:1 152:1 155:1 162:1 163:1 166:1 171:1 174:1 175:1 179:1 
10 3:1 4:1 9:1 12:1 13:1 18:1 20:1 25:1 29:1 33:1 35:1 38:1 40:1 44:1 47:1 54:1 60:1 63:1 66:1 67:1 71:1 74:1 81:1 83:1 90:1 97:1 102:1 103:1 108:1 110:1 117:1 118:1 122:1 125:1 128:1 135:1 138:1 139:1 144:1 145:1 148:1 153:1 156:1 159:1 165:1 166:1 170:1 173:1 175:1 180:1 
10 2:1 4:1 11:1 18:1 19:1 24:1 27:1 33:1 36:1 43:1 46:1 49:1 52:1 57:1 59:1 65:1 71:1 74:1 77:1 83:1 87:1 93:1 98:1 100:1 104:1 107:1 110:1 113:1 116:1 130:1 138:1 140:1 142:1 147:1 152:1 154:1 157:1 160:1 168:1 172:1 175:1 
10 5:1 9:1 11:1 18:1 24:1 27:1 28:1 35:1 39:1 42:1 44:1 49:1 53:1 59:1 75:1 81:1 82:1 90:1 92:1 94:1 98:1 100:1 104:1 107:1 109:1 114:1 116:1 120:1 122:1 129:1 132:1 138:1 140:1 142:1 147:1 148:1 151:1 156:1 159:1 161:1 167:1 174:1 177:1 179:1 
10 6:1 8:1 12:1 14:1 18:1 21:1 23:1 28:1 32:1 37:1 41:1 43:1 46:1 50:1 53:1 55:1 60:1 61:1 66:1 68:1 72:1 73:1 78:1 81:1 83:1 86:1 90:1 93:1 96:1 101:1 107:1 109:1 113:1 115:1 119:1 122:1 125:1 131:1 134:1 136:1 141:1 142:1 147:1 150:1 151:1 159:1 163:1 171:1 174:1 176:1 
10 1:1 8:1 17:1 21:1 23:1 26:1 39:1 41:1 44:1 46:1 50:1 52:1 60:1 62:1 66:1 69:1 71:1 73:1 78:1 80:1 85:1 89:1 91:1 96:1 102:1 105:1 108:1 111:1 112:1 117:1 119:1 125:1 128:1 130:1 135:1 137:1 144:1 145:1 150:1 152:1 156:1 162:1 165:1 166:1 177:1 
10 1:1 5:1 8:1 14:1 19:1 22:1 25:1 28:1 32:1 37:1 40:1 44:1 47:1 54:1 56:1 59:1 65:1 71:1 73:1 78:1 86:1 93:1 94:1 97:1 104:1 107:1 109:1 114:1 115:1 119:1 121:1 126:1 127:1 130:1 137:1 139:1 142:1 149:1 152:1 158:1 160:1 165:1 167:1 174:1 180:1 
10 8:1 14:1 17:1 26:1 31:1 35:1 38:1 40:1 44:1 50:1 52:1 57:1 59:1 66:1 70:1 78:1 81:1 82:1 85:1 93:1 96:1 99:1 102:1 105:1 109:1 112:1 116:1 119:1 122:1 127:1 131:1 133:1 138:1 141:1 145:1 148:1 151:1 156:1 159:1 162:1 164:1 168:1 169:1 174:1 180:1 
2.101075358749661 2:1 6:1 11:1 14:1 20:1 23:1 26:1 31:1 35:1 37:1 40:1 54:1 56:1 59:1 61:1 72:1 83:1 89:1 92:1 99:1 102:1 105:1 112:1 117:1 120:1 122:1 125:1 128:1 131:1 135:1 138:1 140:1 149:1 151:1 155:1 162:1 165:1 174:1 175:1 180:1 
7.762689015919676 8:1 10:1 14:1 17:1 23:1 32:1 35:1 41:1 48:1 51:1 59:1 62:1 74:1 76:1 83:1 89:1 95:1 100:1 104:1 107:1 113:1 116:1 118:1 122:1 125:1 128:1 135:1 137:1 139:1 155:1 158:1 164:1 174:1 179:1 
10 3:1 4:1 7:1 14:1 17:1 20:1 22:1 27:1 29:1 31:1 36:1 47:1 59:1 66:1 84:1 86:1 90:1 91:1 96:1 99:1 100:1 104:1 106:1 110:1 112:1 117:1 118:1 127:1 134:1 137:1 145:1 159:1 162:1 165:1 169:1 173:1 176:1 178:1 
10 1:1 5:1 8:1 21:1 24:1 26:1 35:1 41:1 43:1 48:1 50:1 52:1 57:1 60:1 62:1 64:1 69:1 71:1 78:1 79:1 83:1 90:1 91:1 96:1 99:1 100:1 105:1 106:1 110:1 120:1 123:1 126:1 129:1 134:1 143:1 146:1 153:1 156:1 158:1 164:1 166:1 170:1 175:1 
4.873539232334679 2:1 4:1 8:1 13:1 17:1 24:1 26:1 31:1 35:1 38:1 41:1 47:1 49:1 62:1 64:1 68:1 71:1 78:1 80:1 84:1 86:1 93:1 99:1 102:1 103:1 107:1 109:1 113:1 120:1 121:1 126:1 127:1 130:1 134:1 136:1 143:1 146:1 150:1 152:1 155:1 159:1 165:1 171:1 179:1 
10 4:1 8:1 18:1 21:1 22:1 27:1 33:1 36:1 39:1 43:1 47:1 49:1 59:1 66:1 67:1 70:1 73:1 76:1 81:1 85:1 88:1 94:1 100:1 103:1 108:1 114:1 119:1 125:1 127:1 130:1 140:1 142:1 146:1 158:1 163:1 168:1 173:1 175:1 
10 6:1 7:1 10:1 15:1 21:1 26:1 31:1 34:1 42:1 44:1 46:1 55:1 58:1 62:1 78:1 82:1 85:1 90:1 93:1 97:1 101:1 108:1 109:1 112:1 118:1 122:1 130:1 133:1 139:1 147:1 153:1 156:1 159:1 160:1 163:1 166:1 170:1 173:1 176:1 
10 1:1 4:1 9:1 10:1 13:1 18:1 21:1 23:1 26:1 28:1 33:1 42:1 46:1 54:1 57:1 58:1 62:1 65:1 69:1 75:1 81:1 84:1 90:1 93:1 99:1 102:1 108:1 111:1 114:1 117:1 120:1 126:1 129:1 135:1 138:1 140:1 144:1 147:1 149:1 153:1 156:1 158:1 162:1 165:1 167:1 171:1 174:1 176:1 180:1 
10 1:1 4:1 9:1 10:1 15:1 18:1 21:1 23:1 25:1 30:1 33:1 36:1 37:1 40:1 45:1 48:1 54:1 57:1 63:1 68:1 71:1 75:1 76:1 81:1 84:1 85:1 90:1 93:1 94:1 99:1 101:1 103:1 108:1 110:1 117:1 120:1 122:1 125:1 128:1 135:1 138:1 139:1 144:1 147:1 149:1 152:1 154:1 157:1 162:1 165:1 167:1 171:1 174:1 175:1 180:1 
10 6:1 9:1 11:1 13:1 18:1 20:1 24:1 27:1 30:1 31:1 39:1 42:1 45:1 48:1 49:1 54:1 57:1 58:1 62:1 65:1 67:1 72:1 73:1 77:1 80:1 83:1 85:1 90:1 93:1 94:1 98:1 100:1 104:1 108:1 111:1 112:1 117:1 119:1 129:1 135:1 138:1 139:1 144:1 145:1 149:1 152:1 154:1 159:1 162:1 164:1 167:1 174:1 176:1 178:1 
10 1:1 6:1 9:1 12:1 15:1 18:1 20:1 27:1 28:1 31:1 38:1 41:1 47:1 49:1 54:1 64:1 67:1 72:1 75:1 78:1 80:1 83:1 90:1 93:1 94:1 98:1 101:1 108:1 111:1 114:1 115:1 120:1 122:1 130:1 138:1 141:1 142:1 145:1 150:1 151:1 156:1 158:1 160:1 163:1 168:1 171:1 174:1 177:1 179:1 
10 4:1 12:1 13:1 18:1 21:1 23:1 26:1 28:1 32:1 35:1 38:1 45:1 46:1 51:1 54:1 60:1 62:1 69:1 72:1 75:1 77:1 80:1 83:1 90:1 93:1 96:1 98:1 107:1 112:1 116:1 119:1 122:1 129:1 131:1 135:1 138:1 139:1 144:1 145:1 152:1 154:1 160:1 164:1 171:1 172:1 176:1 179:1 
10 1:1 6:1 8:1 14:1 21:1 23:1 26:1 28:1 33:1 37:1 40:1 45:1 46:1 49:1 54:1 63:1 65:1 67:1 74:1 80:1 83:1 86:1 88:1 93:1 99:1 100:1 103:1 106:1 114:1 116:1 123:1 125:1 132:1 134:1 141:1 143:1 146:1 148:1 161:1 163:1 166:1 170:1 177:1 
10 3:1 4:1 9:1 10:1 23:1 32:1 40:1 45:1 48:1 60:1 63:1 64:1 71:1 76:1 86:1 90:1 92:1 99:1 102:1 105:1 108:1 113:1 116:1 118:1 123:1 129:1 135:1 138:1 139:1 144:1 147:1 153:1 156:1 160:1 165:1 168:1 171:1 174:1 175:1 180:1 
10 1:1 4:1 7:1 13:1 16:1 20:1 22:1 25:1 29:1 31:1 34:1 38:1 40:1 45:1 50:1 57:1 61:1 64:1 67:1 71:1 74:1 76:1 80:1 87:1 90:1 91:1 97:1 102:1 105:1 118:1 121:1 127:1 130:1 133:1 142:1 145:1 149:1 152:1 155:1 157:1 160:1 165:1 169:1 172:1 175:1 180:1 
10 1:1 9:1 12:1 13:1 18:1 21:1 23:1 26:1 29:1 32:1 34:1 39:1 41:1 44:1 47:1 50:1 56:1 62:1 71:1 74:1 77:1 84:1 85:1 89:1 95:1 101:1 104:1 108:1 111:1 113:1 119:1 125:1 128:1 131:1 137:1 140:1 143:1 149:1 151:1 156:1 159:1 161:1 168:1 171:1 173:1 176:1 180:1 
10 3:1 21:1 22:1 29:1 31:1 35:1 39:1 41:1 50:1 55:1 63:1 66:1 67:1 72:1 77:1 80:1 82:1 85:1 90:1 91:1 94:1 103:1 107:1 110:1 112:1 118:1 121:1 126:1 129:1 131:1 133:1 136:1 144:1 155:1 162:1 163:1 166:1 171:1 172:1 
10 2:1 4:1 9:1 10:1 14:1 16:1 19:1 22:1 26:1 29:1 35:1 41:1 47:1 50:1 52:1 57:1 58:1 61:1 65:1 71:1 73:1 78:1 80:1 83:1 85:1 91:1 99:1 100:1 104:1 110:1 116:1 122:1 128:1 131:1 133:1 138:1 139:1 142:1 146:1 152:1 154:1 159:1 164:1 166:1 171:1 172:1 176:1 178:1 
10 3:1 6:1 7:1 10:1 18:1 21:1 27:1 28:1 32:1 39:1 42:1 43:1 47:1 59:1 62:1 64:1 69:1 70:1 77:1 80:1 87:1 90:1 96:1 97:1 105:1 107:1 114:1 117:1 118:1 121:1 124:1 132:1 133:1 137:1 143:1 146:1 149:1 152:1 154:1 159:1 161:1 165:1 171:1 174:1 175:1 180:1 
10 3:1 6:1 11:1 17:1 24:1 26:1 33:1 36:1 44:1 49:1 54:1 56:1 65:1 68:1 74:1 83:1 86:1 89:1 91:1 104:1 111:1 112:1 116:1 122:1 125:1 132:1 135:1 137:1 148:1 153:1 155:1 161:1 167:1 174:1 177:1 178:1 
10 3:1 6:1 7:1 11:1 15:1 16:1 20:1 24:1 29:1 32:1 39:1 41:1 45:1 48:1 51:1 54:1 56:1 60:1 61:1 66:1 68:1 75:1 77:1 79:1 84:1 85:1 90:1 93:1 95:1 102:1 104:1 108:1 111:1 114:1 115:1 120:1 123:1 124:1 129:1 131:1 138:1 141:1 144:1 146:1 149:1 153:1 156:1 158:1 164:1 168:1 170:1 174:1 177:1 178:1 
10 4:1 7:1 12:1 13:1 16:1 21:1 23:1 30:1 35:1 38:1 40:1 45:1 47:1 54:1 57:1 60:1 66:1 68:1 75:1 77:1 84:1 85:1 93:1 94:1 97:1 100:1 106:1 110:1 113:1 120:1 123:1 126:1 128:1 130:1 133:1 141:1 143:1 146:1 148:1 152:1 155:1 159:1 161:1 164:1 166:1 173:1 
10 3:1 11:1 15:1 21:1 24:1 27:1 30:1 33:1 35:1 38:1 40:1 44:1 57:1 59:1 63:1 66:1 68:1 71:1 84:1 85:1 90:1 93:1 94:1 99:1 101:1 104:1 108:1 111:1 112:1 117:1 119:1 126:1 128:1 134:1 138:1 140:1 143:1 146:1 148:1 153:1 156:1 157:1 161:1 163:1 170:1 173:1 177:1 179:1 
10 3:1 5:1 7:1 10:1 13:1 17:1 20:1 26:1 32:1 35:1 38:1 45:1 48:1 50:1 53:1 56:1 59:1 69:1 72:1 73:1 78:1 83:1 85:1 90:1 93:1 95:1 97:1 101:1 103:1 108:1 111:1 114:1 116:1 120:1 123:1 126:1 129:1 135:1 144:1 147:1 153:1 156:1 159:1 162:1 163:1 166:1 169:1 177:1 
10 6:1 7:1 15:1 16:1 21:1 23:1 29:1 36:1 38:1 40:1 47:1 50:1 53:1 55:1 69:1 75:1 78:1 83:1 85:1 95:1 98:1 105:1 107:1 112:1 116:1 118:1 123:1 128:1 134:1 137:1 139:1 142:1 146:1 148:1 151:1 159:1 164:1 167:1 170:1 177:1 180:1 
10 3:1 4:1 9:1 10:1 13:1 16:1 19:1 24:1 26:1 29:1 32:1 36:1 41:1 48:1 60:1 62:1 64:1 69:1 71:1 74:1 77:1 83:1 90:1 91:1 94:1 98:1 100:1 108:1 109:1 113:1 115:1 122:1 131:1 135:1 138:1 150:1 152:1 154:1 159:1 161:1 164:1 167:1 174:1 176:1 
10 2:1 4:1 13:1 16:1 33:1 39:1 41:1 43:1 53:1 66:1 69:1 73:1 76:1 105:1 126:1 130:1 133:1 137:1 142:1 146:1 148:1 151:1 154:1 159:1 161:1 174:1 176:1 
10 5:1 14:1 16:1 25:1 33:1 34:1 41:1 47:1 50:1 52:1 58:1 69:1 72:1 73:1 77:1 79:1 82:1 85:1 93:1 94:1 97:1 101:1 108:1 109:1 112:1 116:1 118:1 123:1 124:1 129:1 130:1 136:1 139:1 142:1 145:1 148:1 158:1 161:1 164:1 167:1 169:1 176:1 178:1 
10 5:1 9:1 15:1 18:1 20:1 24:1 36:1 42:1 45:1 47:1 49:1 52:1 56:1 59:1 62:1 65:1 69:1 72:1 73:1 77:1 79:1 83:1 87:1 90:1 93:1 96:1 98:1 100:1 104:1 107:1 109:1 114:1 116:1 119:1 121:1 126:1 131:1 133:1 138:1 140:1 144:1 147:1 148:1 153:1 155:1 158:1 164:1 167:1 173:1 175:1 179:1 
3.981693359425819 2:1 4:1 10:1 14:1 16:1 20:1 23:1 25:1 30:1 31:1 34:1 44:1 46:1 51:1 52:1 59:1 61:1 69:1 70:1 73:1 81:1 82:1 86:1 93:1 94:1 98:1 100:1 105:1 106:1 109:1 115:1 125:1 132:1 141:1 144:1 147:1 149:1 151:1 156:1 161:1 164:1 171:1 172:1 176:1 
10 1:1 4:1 7:1 11:1 16:1 20:1 23:1 26:1 29:1 34:1 37:1 40:1 43:1 48:1 50:1 53:1 55:1 58:1 61:1 64:1 72:1 75:1 78:1 79:1 82:1 85:1 90:1 93:1 94:1 97:1 100:1 103:1 108:1 109:1 113:1 119:1 121:1 127:1 134:1 136:1 139:1 143:1 145:1 156:1 161:1 165:1 170:1 172:1 
10 2:1 5:1 8:1 11:1 14:1 17:1 19:1 26:1 29:1 32:1 35:1 37:1 42:1 44:1 49:1 53:1 56:1 63:1 64:1 67:1 71:1 75:1 76:1 80:1 83:1 90:1 93:1 94:1 99:1 101:1 105:1 109:1 120:1 122:1 124:1 128:1 130:1 135:1 136:1 141:1 147:1 148:1 152:1 157:1 161:1 163:1 170:1 173:1 176:1 179:1 
10 3:1 6:1 8:1 11:1 17:1 21:1 24:1 26:1 30:1 32:1 35:1 41:1 45:1 47:1 51:1 54:1 56:1 59:1 63:1 65:1 69:1 71:1 75:1 81:1 84:1 86:1 89:1 93:1 99:1 101:1 105:1 107:1 113:1 120:1 122:1 125:1 130:1 138:1 141:1 144:1 147:1 150:1 152:1 155:1 158:1 162:1 165:1 171:1 174:1 177:1 179:1 
10 8:1 12:1 14:1 17:1 19:1 22:1 27:1 29:1 33:1 42:1 45:1 46:1 57:1 65:1 67:1 71:1 74:1 77:1 79:1 83:1 88:1 91:1 97:1 102:1 105:1 108:1 109:1 112:1 116:1 120:1 126:1 127:1 132:1 134:1 141:1 144:1 147:1 157:1 162:1 163:1 167:1 170:1 174:1 179:1 
6.163365247666204 3:1 5:1 7:1 33:1 34:1 39:1 42:1 44:1 46:1 49:1 57:1 58:1 66:1 71:1 73:1 76:1 81:1 82:1 85:1 88:1 94:1 97:1 100:1 105:1 106:1 109:1 121:1 124:1 127:1 142:1 147:1 150:1 151:1 155:1 166:1 170:1 172:1 177:1 179:1 
10 3:1 4:1 12:1 13:1 18:1 19:1 22:1 27:1 28:1 31:1 35:1 42:1 45:1 48:1 51:1 54:1 56:1 63:1 68:1 75:1 80:1 85:1 93:1 95:1 102:1 103:1 107:1 109:1 112:1 117:1 119:1 122:1 124:1 129:1 130:1 135:1 136:1 140:1 144:1 145:1 149:1 152:1 154:1 157:1 162:1 165:1 166:1 171:1 173:1 175:1 178:1 
10 5:1 7:1 13:1 16:1 19:1 22:1 26:1 31:1 37:1 40:1 44:1 50:1 61:1 68:1 79:1 82:1 91:1 96:1 97:1 100:1 103:1 111:1 147:1 148:1 153:1 154:1 158:1 160:1 163:1 168:1 171:1 176:1 
10 2:1 6:1 8:1 17:1 20:1 26:1 30:1 35:1 38:1 42:1 44:1 47:1 50:1 53:1 58:1 61:1 66:1 71:1 75:1 78:1 81:1 82:1 85:1 90:1 93:1 101:1 104:1 114:1 116:1 120:1 123:1 131:1 135:1 137:1 141:1 144:1 146:1 150:1 156:1 158:1 161:1 165:1 168:1 169:1 173:1 177:1 
10 6:1 7:1 11:1 13:1 20:1 23:1 25:1 29:1 32:1 35:1 37:1 42:1 43:1 48:1 50:1 55:1 58:1 65:1 67:1 71:1 74:1 76:1 80:1 83:1 85:1 93:1 95:1 102:1 105:1 106:1 109:1 112:1 115:1 118:1 123:1 124:1 128:1 130:1 134:1 136:1 141:1 144:1 150:1 151:1 154:1 159:1 161:1 168:1 169:1 174:1 175:1 178:1 
10 2:1 10:1 14:1 20:1 44:1 47:1 50:1 53:1 56:1 59:1 68:1 76:1 79:1 82:1 86:1 89:1 91:1 95:1 98:1 100:1 105:1 111:1 114:1 122:1 124:1 142:1 145:1 150:1 153:1 173:1 175:1 
10 9:1 10:1 13:1 17:1 24:1 27:1 30:1 33:1 34:1 37:1 42:1 44:1 48:1 49:1 52:1 57:1 60:1 66:1 69:1 71:1 73:1 78:1 84:1 85:1 90:1 92:1 99:1 100:1 105:1 106:1 117:1 119:1 123:1 125:1 128:1 130:1 139:1 143:1 145:1 149:1 155:1 158:1 160:1 165:1 167:1 170:1 177:1 180:1 
10 3:1 5:1 9:1 11:1 14:1 16:1 19:1 22:1 27:1 29:1 31:1 34:1 37:1 42:1 45:1 48:1 51:1 52:1 56:1 58:1 64:1 67:1 70:1 74:1 76:1 80:1 83:1 85:1 90:1 93:1 94:1 97:1 101:1 103:1 106:1 110:1 114:1 117:1 120:1 123:1 124:1 129:1 130:1 135:1 136:1 141:1 143:1 146:1 152:1 155:1 162:1 168:1 169:1 172:1 175:1 180:1 
10 2:1 6:1 8:1 10:1 13:1 17:1 27:1 30:1 33:1 35:1 38:1 45:1 48:1 51:1 53:1 55:1 58:1 63:1 64:1 67:1 72:1 77:1 81:1 83:1 90:1 93:1 94:1 99:1 101:1 103:1 108:1 114:1 117:1 120:1 126:1 127:1 131:1 134:1 138:1 139:1 144:1 147:1 148:1 153:1 156:1 158:1 161:1 165:1 167:1 170:1 177:1 179:1 
10 3:1 6:1 7:1 20:1 23:1 25:1 30:1 32:1 35:1 41:1 44:1 47:1 50:1 56:1 63:1 65:1 67:1 70:1 73:1 78:1 79:1 87:1 93:1 94:1 97:1 101:1 105:1 106:1 111:1 117:1 123:1 125:1 127:1 132:1 133:1 137:1 141:1 144:1 150:1 152:1 155:1 158:1 160:1 164:1 167:1 170:1 173:1 176:1 179:1 
10 2:1 5:1 12:1 15:1 20:1 23:1 26:1 29:1 32:1 39:1 42:1 44:1 47:1 50:1 57:1 59:1 66:1 69:1 71:1 75:1 76:1 81:1 82:1 85:1 88:1 93:1 96:1 97:1 104:1 107:1 110:1 113:1 120:1 123:1 129:1 131:1 138:1 139:1 147:1 150:1 155:1 158:1 165:1 167:1 174:1 177:1 
10 3:1 6:1 9:1 11:1 13:1 18:1 19:1 26:1 35:1 37:1 40:1 47:1 49:1 54:1 59:1 62:1 67:1 71:1 73:1 78:1 80:1 82:1 85:1 90:1 102:1 103:1 107:1 109:1 113:1 115:1 118:1 121:1 124:1 131:1 135:1 137:1 139:1 143:1 145:1 148:1 152:1 156:1 157:1 165:1 166:1 170:1 174:1 176:1 178:1 
10 3:1 6:1 12:1 17:1 19:1 24:1 27:1 33:1 36:1 39:1 40:1 45:1 49:1 53:1 60:1 62:1 64:1 67:1 71:1 74:1 81:1 82:1 86:1 90:1 92:1 94:1 97:1 105:1 107:1 113:1 115:1 120:1 121:1 125:1 129:1 131:1 133:1 138:1 139:1 142:1 147:1 150:1 153:1 154:1 158:1 165:1 167:1 170:1 174:1 179:1 
10 3:1 4:1 7:1 10:1 18:1 19:1 23:1 30:1 31:1 39:1 42:1 43:1 48:1 51:1 57:1 63:1 66:1 67:1 86:1 90:1 102:1 103:1 106:1 111:1 116:1 118:1 125:1 129:1 132:1 137:1 141:1 144:1 146:1 156:1 157:1 161:1 163:1 167:1 170:1 172:1 180:1 
10 3:1 8:1 21:1 23:1 38:1 44:1 51:1 55:1 64:1 70:1 77:1 79:1 82:1 85:1 89:1 91:1 102:1 105:1 108:1 109:1 112:1 115:1 125:1 127:1 132:1 134:1 137:1 143:1 149:1 152:1 154:1 159:1 162:1 164:1 168:1 169:1 177:1 180:1 
9.3994686350104 1:1 5:1 8:1 11:1 14:1 17:1 21:1 24:1 29:1 32:1 34:1 37:1 42:1 44:1 47:1 53:1 56:1 59:1 62:1 68:1 71:1 73:1 77:1 80:1 82:1 86:1 93:1 95:1 99:1 101:1 104:1 107:1 116:1 122:1 125:1 128:1 135:1 136:1 141:1 144:1 145:1 149:1 152:1 158:1 160:1 165:1 167:1 179:1 
10 3:1 5:1 15:1 17:1 19:1 23:1 26:1 28:1 38:1 40:1 45:1 47:1 52:1 55:1 60:1 61:1 66:1 69:1 70:1 75:1 78:1 79:1 83:1 85:1 90:1 91:1 98:1 100:1 108:1 109:1 113:1 115:1 119:1 126:1 127:1 130:1 135:1 137:1 141:1 147:1 148:1 156:1 157:1 162:1 163:1 167:1 171:1 173:1 179:1 
10 5:1 8:1 10:1 18:1 30:1 34:1 37:1 40:1 43:1 47:1 52:1 56:1 58:1 62:1 64:1 71:1 74:1 77:1 82:1 85:1 93:1 99:1 105:1 107:1 110:1 112:1 118:1 123:1 124:1 129:1 139:1 142:1 146:1 148:1 152:1 154:1 157:1 162:1 167:1 170:1 177:1 
10 1:1 5:1 10:1 14:1 20:1 27:1 29:1 31:1 35:1 40:1 43:1 46:1 51:1 53:1 56:1 58:1 72:1 74:1 77:1 80:1 83:1 85:1 88:1 100:1 103:1 108:1 118:1 124:1 127:1 130:1 139:1 143:1 146:1 148:1 153:1 164:1 168:1 171:1 175:1 178:1 
10 1:1 4:1 14:1 16:1 21:1 24:1 26:1 29:1 36:1 41:1 44:1 52:1 57:1 58:1 61:1 69:1 71:1 76:1 80:1 82:1 87:1 90:1 93:1 97:1 101:1 103:1 108:1 110:1 113:1 116:1 118:1 132:1 133:1 138:1 140:1 146:1 149:1 156:1 160:1 166:1 171:1 172:1 178:1 
5.259381317681863 3:1 8:1 11:1 18:1 24:1 26:1 29:1 36:1 42:1 49:1 53:1 63:1 65:1 70:1 74:1 76:1 81:1 88:1 93:1 94:1 97:1 100:1 104:1 106:1 109:1 112:1 116:1 125:1 127:1 135:1 137:1 140:1 143:1 145:1 148:1 151:1 155:1 158:1 160:1 163:1 168:1 171:1 172:1 175:1 179:1 
10 2:1 5:1 9:1 14:1 17:1 20:1 25:1 35:1 42:1 45:1 47:1 50:1 52:1 56:1 66:1 67:1 77:1 81:1 84:1 87:1 90:1 93:1 94:1 98:1 100:1 104:1 107:1 114:1 117:1 121:1 126:1 129:1 132:1 135:1 136:1 144:1 147:1 150:1 153:1 154:1 157:1 160:1 165:1 168:1 174:1 177:1 180:1 
10 10:1 14:1 16:1 21:1 22:1 25:1 32:1 34:1 39:1 42:1 52:1 66:1 77:1 79:1 85:1 88:1 102:1 106:1 111:1 112:1 115:1 124:1 131:1 133:1 136:1 141:1 143:1 145:1 152:1 154:1 160:1 175:1 180:1 
10 3:1 4:1 11:1 14:1 16:1 21:1 23:1 30:1 36:1 39:1 41:1 46:1 53:1 56:1 58:1 63:1 65:1 68:1 71:1 74:1 83:1 86:1 93:1 96:1 99:1 102:1 103:1 107:1 120:1 123:1 124:1 128:1 141:1 142:1 147:1 150:1 153:1 156:1 159:1 162:1 165:1 167:1 169:1 177:1 179:1 
1.326150312521599 2:1 5:1 7:1 10:1 14:1 16:1 22:1 27:1 33:1 34:1 37:1 40:1 44:1 47:1 50:1 53:1 56:1 58:1 61:1 65:1 68:1 74:1 79:1 83:1 88:1 91:1 94:1 97:1 100:1 106:1 110:1 112:1 115:1 118:1 121:1 124:1 133:1 138:1 140:1 147:1 150:1 153:1 156:1 162:1 168:1 171:1 177:1 180:1 
10 2:1 4:1 9:1 11:1 18:1 20:1 25:1 29:1 36:1 39:1 47:1 53:1 59:1 63:1 65:1 71:1 74:1 78:1 81:1 84:1 85:1 88:1 93:1 96:1 98:1 101:1 108:1 111:1 114:1 116:1 123:1 124:1 128:1 132:1 134:1 137:1 141:1 142:1 146:1 148:1 151:1 155:1 160:1 164:1 171:1 173:1 176:1 180:1 
10 1:1 5:1 7:1 11:1 13:1 17:1 19:1 23:1 25:1 29:1 32:1 35:1 42:1 47:1 50:1 52:1 56:1 58:1 61:1 64:1 69:1 72:1 75:1 77:1 80:1 85:1 90:1 93:1 94:1 97:1 100:1 104:1 109:1 113:1 117:1 123:1 125:1 128:1 131:1 140:1 142:1 147:1 149:1 152:1 154:1 162:1 164:1 166:1 170:1 173:1 176:1 180:1 
5.460699256352874 1:1 8:1 11:1 14:1 17:1 19:1 24:1 25:1 32:1 35:1 40:1 43:1 48:1 49:1 54:1 57:1 59:1 62:1 66:1 67:1 70:1 78:1 81:1 85:1 92:1 99:1 102:1 105:1 107:1 109:1 114:1 115:1 118:1 121:1 126:1 127:1 134:1 138:1 139:1 145:1 151:1 155:1 158:1 163:1 169:1 172:1 176:1 180:1 
1.615314063515837 1:1 6:1 9:1 10:1 14:1 17:1 20:1 27:1 29:1 32:1 35:1 38:1 45:1 46:1 50:1 53:1 58:1 61:1 66:1 68:1 71:1 74:1 76:1 80:1 83:1 86:1 89:1 91:1 94:1 97:1 102:1 105:1 107:1 110:1 112:1 115:1 118:1 122:1 128:1 134:1 137:1 139:1 143:1 149:1 152:1 155:1 161:1 163:1 168:1 170:1 176:1 180:1 
10 1:1 6:1 18:1 20:1 22:1 26:1 29:1 36:1 41:1 44:1 47:1 50:1 52:1 56:1 59:1 62:1 68:1 71:1 73:1 77:1 83:1 85:1 90:1 92:1 99:1 104:1 107:1 114:1 116:1 118:1 123:1 125:1 127:1 130:1 133:1 137:1 139:1 143:1 149:1 152:1 154:1 158:1 161:1 164:1 170:1 173:1 175:1 179:1 
10 6:1 7:1 11:1 13:1 16:1 19:1 22:1 33:1 36:1 37:1 40:1 48:1 56:1 68:1 70:1 75:1 80:1 82:1 85:1 93:1 96:1 98:1 100:1 103:1 107:1 109:1 128:1 130:1 134:1 141:1 144:1 147:1 157:1 163:1 168:1 172:1 177:1 180:1 
7.892228541974296 3:1 5:1 10:1 13:1 19:1 22:1 25:1 28:1 31:1 35:1 37:1 40:1 45:1 47:1 49:1 53:1 58:1 69:1 77:1 79:1 82:1 86:1 100:1 105:1 108:1 114:1 120:1 126:1 130:1 134:1 147:1 150:1 151:1 156:1 158:1 161:1 163:1 167:1 170:1 172:1 
10 3:1 5:1 8:1 15:1 17:1 24:1 26:1 32:1 39:1 42:1 44:1 47:1 50:1 53:1 60:1 63:1 68:1 71:1 78:1 83:1 86:1 93:1 101:1 107:1 110:1 112:1 117:1 119:1 121:1 129:1 132:1 138:1 144:1 149:1 156:1 157:1 162:1 165:1 167:1 173:1 176:1 179:1 
10 1:1 6:1 7:1 12:1 13:1 17:1 20:1 23:1 36:1 37:1 40:1 45:1 50:1 52:1 55:1 60:1 63:1 64:1 68:1 70:1 74:1 77:1 81:1 82:1 87:1 90:1 91:1 94:1 99:1 100:1 105:1 108:1 109:1 113:1 122:1 125:1 127:1 131:1 135:1 141:1 144:1 145:1 149:1 152:1 154:1 159:1 162:1 168:1 169:1 173:1 176:1 178:1 
10 1:1 6:1 9:1 12:1 14:1 16:1 20:1 22:1 27:1 28:1 36:1 43:1 47:1 49:1 54:1 56:1 62:1 64:1 69:1 72:1 74:1 77:1 80:1 83:1 85:1 90:1 93:1 96:1 98:1 101:1 103:1 108:1 110:1 116:1 119:1 121:1 126:1 129:1 131:1 136:1 141:1 148:1 152:1 155:1 162:1 168:1 169:1 174:1 177:1 179:1 
0.7407919808871416 8:1 12:1 14:1 26:1 29:1 35:1 42:1 45:1 57:1 58:1 61:1 64:1 69:1 71:1 74:1 80:1 87:1 90:1 91:1 94:1 97:1 100:1 104:1 110:1 112:1 117:1 120:1 121:1 131:1 137:1 139:1 143:1 147:1 148:1 152:1 158:1 163:1 167:1 170:1 172:1 180:1 
4.560838334611231 3:1 5:1 9:1 12:1 18:1 21:1 23:1 27:1 28:1 32:1 34:1 42:1 45:1 47:1 51:1 54:1 55:1 60:1 62:1 65:1 68:1 74:1 77:1 81:1 82:1 87:1 90:1 92:1 96:1 99:1 102:1 108:1 109:1 113:1 117:1 119:1 123:1 125:1 128:1 131:1 134:1 137:1 144:1 145:1 153:1 154:1 162:1 165:1 168:1 170:1 173:1 179:1 
10 1:1 4:1 10:1 13:1 21:1 22:1 26:1 28:1 33:1 34:1 37:1 41:1 44:1 49:1 53:1 60:1 63:1 66:1 67:1 70:1 74:1 83:1 90:1 91:1 96:1 102:1 105:1 106:1 111:1 114:1 116:1 120:1 121:1 124:1 128:1 131:1 133:1 137:1 144:1 145:1 150:1 152:1 155:1 157:1 160:1 165:1 168:1 169:1 174:1 176:1 
10 2:1 9:1 15:1 18:1 22:1 30:1 31:1 34:1 39:1 41:1 44:1 46:1 51:1 52:1 56:1 59:1 65:1 68:1 71:1 74:1 78:1 81:1 83:1 87:1 90:1 93:1 95:1 98:1 104:1 106:1 111:1 114:1 117:1 118:1 121:1 125:1 127:1 132:1 133:1 136:1 144:1 145:1 152:1 154:1 159:1 160:1 164:1 167:1 180:1 
10 1:1 9:1 12:1 13:1 17:1 19:1 24:1 25:1 29:1 32:1 35:1 44:1 47:1 53:1 66:1 72:1 75:1 80:1 83:1 87:1 90:1 92:1 94:1 98:1 100:1 103:1 107:1 110:1 113:1 116:1 118:1 122:1 124:1 129:1 132:1 133:1 136:1 140:1 142:1 147:1 152:1 155:1 170:1 172:1 180:1 
10 2:1 11:1 13:1 25:1 28:1 32:1 38:1 40:1 43:1 47:1 52:1 58:1 63:1 64:1 67:1 76:1 85:1 90:1 93:1 95:1 102:1 105:1 111:1 113:1 117:1 119:1 121:1 124:1 129:1 135:1 136:1 140:1 147:1 149:1 151:1 156:1 172:1 176:1 179:1 
10 1:1 6:1 8:1 12:1 15:1 17:1 24:1 27:1 29:1 31:1 37:1 41:1 44:1 53:1 56:1 59:1 61:1 65:1 71:1 73:1 77:1 81:1 84:1 85:1 90:1 93:1 95:1 98:1 100:1 107:1 110:1 112:1 117:1 120:1 122:1 125:1 135:1 147:1 148:1 153:1 155:1 159:1 162:1 165:1 168:1 170:1 174:1 175:1 180:1 
7.007703341648288 3:1 6:1 9:1 12:1 13:1 16:1 19:1 22:1 25:1 30:1 34:1 37:1 40:1 43:1 47:1 49:1 52:1 55:1 58:1 66:1 70:1 73:1 76:1 82:1 85:1 90:1 93:1 94:1 99:1 103:1 106:1 109:1 114:1 116:1 118:1 126:1 130:1 134:1 142:1 145:1 148:1 151:1 157:1 163:1 173:1 
10 5:1 7:1 10:1 14:1 19:1 22:1 35:1 37:1 40:1 45:1 46:1 50:1 52:1 55:1 72:1 75:1 76:1 81:1 87:1 90:1 93:1 94:1 97:1 101:1 104:1 107:1 109:1 112:1 115:1 119:1 122:1 125:1 129:1 134:1 136:1 139:1 146:1 148:1 151:1 156:1 161:1 166:1 170:1 172:1 176:1 
10 2:1 4:1 8:1 11:1 13:1 18:1 20:1 22:1 26:1 30:1 31:1 36:1 38:1 42:1 46:1 54:1 57:1 60:1 62:1 67:1 71:1 74:1 76:1 81:1 83:1 90:1 92:1 94:1 102:1 105:1 106:1 111:1 113:1 115:1 120:1 121:1 126:1 129:1 135:1 136:1 139:1 143:1 147:1 150:1 156:1 159:1 162:1 164:1 170:1 173:1 176:1 178:1 
8.204388842120277 1:1 8:1 10:1 24:1 27:1 31:1 38:1 40:1 46:1 49:1 53:1 55:1 58:1 61:1 64:1 70:1 74:1 78:1 80:1 82:1 85:1 102:1 105:1 107:1 109:1 119:1 121:1 138:1 139:1 146:1 148:1 161:1 163:1 166:1 171:1 172:1 175:1 178:1 
10 3:1 5:1 7:1 12:1 15:1 16:1 23:1 26:1 31:1 35:1 37:1 41:1 44:1 52:1 56:1 58:1 62:1 64:1 71:1 73:1 79:1 82:1 85:1 90:1 93:1 96:1 97:1 102:1 103:1 111:1 112:1 120:1 123:1 126:1 127:1 131:1 136:1 141:1 142:1 147:1 150:1 151:1 156:1 160:1 163:1 167:1 174:1 177:1 178:1 
10 3:1 6:1 9:1 10:1 15:1 16:1 19:1 22:1 25:1 29:1 33:1 40:1 45:1 48:1 51:1 57:1 63:1 66:1 67:1 73:1 82:1 86:1 90:1 93:1 94:1 97:1 100:1 105:1 107:1 110:1 119:1 122:1 127:1 130:1 133:1 136:1 139:1 142:1 150:1 151:1 155:1 157:1 169:1 172:1 176:1 
10 3:1 4:1 8:1 10:1 17:1 21:1 22:1 27:1 28:1 35:1 39:1 41:1 44:1 46:1 50:1 53:1 58:1 62:1 65:1 69:1 71:1 73:1 76:1 79:1 83:1 90:1 92:1 99:1 102:1 103:1 108:1 111:1 114:1 116:1 120:1 121:1 126:1 129:1 130:1 135:1 139:1 143:1 145:1 150:1 151:1 154:1 162:1 167:1 174:1 177:1 178:1 
10 1:1 5:1 9:1 15:1 17:1 24:1 26:1 28:1 33:1 34:1 41:1 44:1 48:1 49:1 52:1 63:1 66:1 68:1 74:1 77:1 79:1 83:1 85:1 89:1 92:1 95:1 99:1 105:1 108:1 114:1 117:1 123:1 125:1 132:1 133:1 138:1 140:1 144:1 147:1 149:1 152:1 159:1 162:1 163:1 167:1 169:1 173:1 176:1 178:1 
5.914555800060428 1:1 6:1 12:1 15:1 16:1 21:1 26:1 30:1 33:1 36:1 39:1 42:1 44:1 57:1 63:1 65:1 72:1 75:1 78:1 80:1 83:1 90:1 92:1 98:1 107:1 110:1 120:1 123:1 126:1 129:1 131:1 134:1 138:1 141:1 144:1 153:1 161:1 163:1 170:1 175:1 179:1 
10 2:1 5:1 9:1 11:1 15:1 17:1 20:1 23:1 30:1 33:1 41:1 44:1 47:1 50:1 52:1 57:1 60:1 63:1 65:1 68:1 71:1 74:1 76:1 81:1 83:1 87:1 90:1 91:1 95:1 99:1 105:1 108:1 113:1 116:1 118:1 125:1 128:1 131:1 134:1 143:1 150:1 152:1 154:1 161:1 164:1 170:1 173:1 177:1 179:1 
10 3:1 4:1 11:1 15:1 19:1 26:1 35:1 38:1 47:1 53:1 55:1 59:1 62:1 64:1 72:1 74:1 76:1 90:1 99:1 100:1 104:1 106:1 111:1 115:1 135:1 136:1 141:1 144:1 146:1 148:1 153:1 159:1 162:1 164:1 170:1 173:1 175:1 178:1 
1.896403734710127 2:1 5:1 8:1 10:1 15:1 18:1 19:1 24:1 27:1 30:1 33:1 39:1 42:1 43:1 47:1 50:1 53:1 55:1 59:1 61:1 66:1 68:1 71:1 74:1 76:1 81:1 84:1 87:1 88:1 93:1 96:1 98:1 101:1 105:1 106:1 109:1 112:1 117:1 119:1 123:1 125:1 129:1 132:1 135:1 137:1 141:1 144:1 147:1 149:1 151:1 156:1 159:1 161:1 163:1 168:1 169:1 174:1 177:1 179:1 
1.563751010952941 2:1 6:1 9:1 11:1 14:1 18:1 20:1 27:1 29:1 32:1 35:1 39:1 42:1 44:1 47:1 50:1 53:1 57:1 60:1 62:1 66:1 67:1 72:1 74:1 78:1 81:1 82:1 87:1 90:1 93:1 95:1 99:1 102:1 103:1 108:1 110:1 114:1 116:1 120:1 123:1 125:1 129:1 131:1 134:1 138:1 141:1 142:1 147:1 149:1 152:1 156:1 157:1 162:1 165:1 168:1 170:1 173:1 177:1 179:1 
10 12:1 15:1 16:1 19:1 23:1 26:1 31:1 36:1 37:1 41:1 43:1 50:1 53:1 56:1 59:1 62:1 65:1 75:1 77:1 80:1 87:1 90:1 91:1 95:1 101:1 108:1 109:1 114:1 116:1 123:1 124:1 128:1 131:1 135:1 136:1 139:1 149:1 152:1 155:1 158:1 161:1 168:1 170:1 174:1 176:1 178:1 
10 3:1 8:1 10:1 14:1 18:1 20:1 22:1 30:1 31:1 34:1 39:1 42:1 45:1 46:1 51:1 53:1 55:1 59:1 62:1 66:1 72:1 75:1 76:1 81:1 82:1 85:1 90:1 91:1 95:1 97:1 102:1 108:1 111:1 113:1 116:1 119:1 122:1 127:1 131:1 133:1 138:1 139:1 142:1 150:1 158:1 160:1 166:1 171:1 174:1 
10 3:1 4:1 11:1 13:1 17:1 19:1 23:1 28:1 35:1 41:1 44:1 46:1 50:1 60:1 62:1 65:1 68:1 70:1 75:1 77:1 80:1 83:1 90:1 96:1 99:1 100:1 103:1 108:1 109:1 118:1 123:1 125:1 129:1 132:1 134:1 137:1 139:1 147:1 151:1 161:1 164:1 166:1 169:1 177:1 
10 6:1 8:1 14:1 17:1 20:1 23:1 26:1 28:1 31:1 35:1 45:1 48:1 51:1 54:1 56:1 59:1 62:1 69:1 72:1 73:1 80:1 83:1 85:1 90:1 92:1 94:1 99:1 102:1 108:1 111:1 112:1 119:1 121:1 126:1 127:1 132:1 134:1 141:1 144:1 146:1 150:1 152:1 154:1 157:1 160:1 165:1 166:1 171:1 173:1 177:1 180:1 
10 7:1 11:1 14:1 20:1 25:1 28:1 35:1 37:1 40:1 44:1 46:1 51:1 59:1 61:1 64:1 73:1 81:1 83:1 93:1 94:1 97:1 111:1 116:1 119:1 122:1 129:1 134:1 139:1 148:1 151:1 158:1 160:1 164:1 173:1 179:1 
2.211978166956783 2:1 6:1 8:1 11:1 15:1 17:1 20:1 24:1 26:1 29:1 33:1 36:1 39:1 42:1 44:1 48:1 51:1 53:1 56:1 59:1 62:1 65:1 69:1 71:1 75:1 77:1 83:1 88:1 92:1 95:1 98:1 105:1 107:1 109:1 113:1 119:1 123:1 126:1 128:1 131:1 137:1 139:1 142:1 146:1 150:1 153:1 156:1 158:1 164:1 167:1 170:1 174:1 176:1 178:1 
-0.6493966579813411 2:1 8:1 11:1 14:1 17:1 19:1 23:1 26:1 29:1 31:1 35:1 38:1 45:1 50:1 53:1 55:1 59:1 62:1 65:1 69:1 71:1 74:1 77:1 81:1 83:1 85:1 90:1 91:1 98:1 102:1 104:1 113:1 116:1 123:1 126:1 127:1 132:1 134:1 137:1 139:1 144:1 147:1 149:1 151:1 154:1 159:1 160:1 163:1 167:1 173:1 176:1 178:1 
-0.9291618259172674 2:1 4:1 7:1 12:1 21:1 22:1 26:1 31:1 36:1 37:1 45:1 47:1 50:1 53:1 64:1 83:1 85:1 90:1 91:1 94:1 97:1 103:1 113:1 118:1 122:1 124:1 131:1 133:1 144:1 147:1 148:1 153:1 155:1 162:1 168:1 171:1 175:1 
-10 1:1 5:1 14:1 16:1 21:1 27:1 30:1 31:1 36:1 39:1 40:1 43:1 46:1 50:1 52:1 55:1 59:1 66:1 67:1 70:1 75:1 76:1 84:1 85:1 90:1 93:1 99:1 102:1 103:1 106:1 109:1 115:1 118:1 122:1 124:1 129:1 130:1 137:1 139:1 145:1 150:1 151:1 154:1 162:1 163:1 168:1 169:1 172:1 177:1 179:1 
-10 2:1 5:1 8:1 10:1 13:1 18:1 19:1 24:1 27:1 28:1 33:1 34:1 41:1 45:1 48:1 50:1 54:1 56:1 60:1 63:1 72:1 77:1 79:1 84:1 86:1 93:1 97:1 100:1 105:1 109:1 112:1 115:1 120:1 122:1 126:1 127:1 132:1 134:1 137:1 140:1 143:1 147:1 151:1 154:1 158:1 161:1 165:1 173:1 177:1 
-10 1:1 4:1 7:1 15:1 21:1 22:1 25:1 38:1 45:1 48:1 49:1 79:1 85:1 90:1 92:1 94:1 102:1 114:1 120:1 125:1 127:1 136:1 141:1 147:1 148:1 151:1 154:1 158:1 165:1 168:1 169:1 172:1 175:1 178:1 
-10 3:1 6:1 8:1 11:1 18:1 19:1 23:1 32:1 37:1 42:1 44:1 47:1 49:1 53:1 57:1 60:1 63:1 68:1 74:1 77:1 81:1 83:1 85:1 90:1 99:1 102:1 104:1 107:1 110:1 112:1 117:1 119:1 123:1 125:1 134:1 138:1 141:1 144:1 146:1 149:1 153:1 156:1 162:1 170:1 172:1 176:1 180:1 
-10 2:1 4:1 9:1 12:1 15:1 16:1 20:1 26:1 28:1 33:1 36:1 38:1 40:1 45:1 46:1 49:1 59:1 61:1 64:1 71:1 77:1 80:1 84:1 85:1 90:1 93:1 97:1 102:1 103:1 116:1 119:1 125:1 129:1 132:1 133:1 138:1 143:1 148:1 167:1 170:1 173:1 175:1 179:1 
-10 2:1 7:1 12:1 13:1 18:1 21:1 22:1 25:1 30:1 33:1 35:1 37:1 44:1 47:1 49:1 52:1 55:1 59:1 63:1 65:1 72:1 73:1 81:1 84:1 87:1 90:1 93:1 99:1 100:1 105:1 108:1 111:1 117:1 120:1 122:1 126:1 128:1 131:1 133:1 138:1 141:1 144:1 147:1 152:1 155:1 158:1 161:1 163:1 166:1 173:1 176:1 
-10 3:1 6:1 9:1 11:1 15:1 18:1 21:1 24:1 26:1 33:1 34:1 38:1 41:1 45:1 46:1 51:1 54:1 57:1 60:1 63:1 69:1 72:1 75:1 78:1 80:1 83:1 85:1 90:1 93:1 101:1 107:1 109:1 113:1 115:1 119:1 122:1 125:1 131:1 134:1 136:1 141:1 147:1 150:1 151:1 159:1 160:1 171:1 174:1 176:1 
-10 3:1 6:1 7:1 12:1 13:1 20:1 27:1 29:1 39:1 40:1 43:1 51:1 57:1 59:1 66:1 67:1 75:1 76:1 80:1 82:1 87:1 90:1 93:1 97:1 100:1 103:1 108:1 109:1 114:1 119:1 123:1 128:1 132:1 133:1 139:1 147:1 149:1 168:1 171:1 175:1 180:1 
-10 3:1 9:1 11:1 15:1 16:1 19:1 22:1 25:1 30:1 31:1 38:1 45:1 47:1 49:1 52:1 55:1 58:1 74:1 80:1 82:1 85:1 90:1 93:1 97:1 102:1 105:1 108:1 110:1 117:1 120:1 121:1 125:1 131:1 138:1 141:1 143:1 145:1 150:1 153:1 158:1 165:1 166:1 170:1 173:1 176:1 178:1 
-10 3:1 6:1 8:1 14:1 16:1 23:1 25:1 30:1 32:1 34:1 42:1 45:1 47:1 50:1 55:1 59:1 63:1 66:1 67:1 71:1 73:1 78:1 79:1 86:1 90:1 93:1 99:1 101:1 105:1 107:1 110:1 112:1 115:1 120:1 122:1 125:1 128:1 131:1 135:1 138:1 141:1 143:1 146:1 152:1 156:1 159:1 162:1 163:1 168:1 171:1 174:1 175:1 178:1 
-10 3:1 4:1 11:1 18:1 21:1 23:1 30:1 31:1 35:1 43:1 59:1 69:1 70:1 80:1 85:1 90:1 93:1 95:1 102:1 103:1 108:1 111:1 120:1 123:1 134:1 136:1 141:1 143:1 145:1 153:1 157:1 164:1 171:1 173:1 
-10 3:1 4:1 7:1 21:1 29:1 31:1 39:1 40:1 44:1 49:1 60:1 66:1 74:1 81:1 85:1 90:1 92:1 95:1 102:1 103:1 108:1 109:1 113:1 115:1 120:1 122:1 129:1 131:1 134:1 141:1 147:1 153:1 156:1 159:1 160:1 164:1 171:1 172:1 177:1 178:1 
-10 1:1 4:1 7:1 11:1 18:1 19:1 24:1 26:1 33:1 34:1 42:1 43:1 49:1 52:1 61:1 70:1 80:1 85:1 90:1 93:1 95:1 98:1 100:1 104:1 106:1 111:1 112:1 115:1 119:1 126:1 127:1 130:1 133:1 137:1 139:1 146:1 155:1 157:1 162:1 168:1 173:1 178:1 
-5.363922278819639 6:1 9:1 12:1 13:1 19:1 24:1 25:1 28:1 31:1 35:1 41:1 43:1 47:1 56:1 59:1 64:1 68:1 70:1 80:1 83:1 85:1 90:1 91:1 99:1 102:1 103:1 106:1 114:1 116:1 122:1 128:1 135:1 137:1 139:1 144:1 147:1 149:1 152:1 154:1 157:1 162:1 164:1 167:1 170:1 174:1 176:1 178:1 
-10 5:1 20:1 24:1 32:1 35:1 45:1 48:1 50:1 54:1 55:1 60:1 63:1 65:1 81:1 82:1 90:1 93:1 97:1 100:1 105:1 108:1 110:1 119:1 121:1 126:1 127:1 130:1 135:1 138:1 150:1 152:1 154:1 159:1 162:1 163:1 176:1 
-10 1:1 10:1 13:1 26:1 31:1 34:1 47:1 74:1 77:1 80:1 85:1 90:1 91:1 94:1 98:1 105:1 112:1 116:1 121:1 124:1 127:1 131:1 138:1 139:1 144:1 149:1 151:1 156:1 157:1 160:1 165:1 175:1 179:1 
-6.278669410271189 5:1 11:1 13:1 17:1 22:1 27:1 30:1 32:1 35:1 38:1 47:1 56:1 59:1 68:1 71:1 74:1 77:1 79:1 82:1 85:1 90:1 92:1 102:1 104:1 110:1 113:1 115:1 120:1 123:1 125:1 132:1 135:1 136:1 142:1 146:1 148:1 151:1 156:1 159:1 162:1 165:1 167:1 171:1 174:1 177:1 
-10 3:1 12:1 13:1 16:1 21:1 25:1 29:1 34:1 37:1 40:1 45:1 46:1 49:1 53:1 55:1 58:1 62:1 64:1 67:1 72:1 78:1 83:1 86:1 88:1 93:1 97:1 100:1 105:1 117:1 131:1 133:1 139:1 147:1 153:1 154:1 160:1 168:1 176:1 179:1 
-10 3:1 20:1 29:1 32:1 36:1 38:1 41:1 50:1 57:1 60:1 69:1 70:1 74:1 85:1 90:1 92:1 95:1 97:1 102:1 103:1 106:1 110:1 113:1 115:1 120:1 126:1 128:1 137:1 142:1 148:1 151:1 155:1 161:1 164:1 166:1 171:1 178:1 
-10 3:1 5:1 15:1 18:1 19:1 27:1 28:1 33:1 35:1 38:1 44:1 53:1 59:1 61:1 64:1 69:1 71:1 73:1 77:1 84:1 87:1 90:1 93:1 97:1 105:1 108:1 109:1 113:1 116:1 118:1 121:1 125:1 127:1 131:1 137:1 139:1 142:1 149:1 155:1 158:1 169:1 
-5.39979271510327 9:1 11:1 17:1 19:1 24:1 26:1 29:1 35:1 39:1 41:1 48:1 50:1 60:1 62:1 65:1 71:1 74:1 81:1 83:1 85:1 90:1 91:1 95:1 99:1 101:1 104:1 108:1 110:1 113:1 115:1 120:1 123:1 125:1 128:1 132:1 133:1 138:1 140:1 143:1 145:1 150:1 158:1 161:1 165:1 168:1 171:1 177:1 
-10 1:1 4:1 9:1 12:1 13:1 16:1 19:1 35:1 38:1 40:1 43:1 46:1 49:1 57:1 63:1 66:1 67:1 75:1 76:1 80:1 82:1 86:1 88:1 93:1 97:1 100:1 105:1 108:1 110:1 113:1 115:1 119:1 122:1 124:1 132:1 135:1 138:1 143:1 146:1 148:1 153:1 154:1 159:1 162:1 163:1 171:1 172:1 177:1 180:1 
-7.618228249797014 3:1 9:1 12:1 15:1 17:1 19:1 22:1 27:1 33:1 35:1 38:1 42:1 43:1 46:1 51:1 53:1 57:1 59:1 61:1 66:1 69:1 71:1 73:1 80:1 82:1 85:1 90:1 93:1 97:1 101:1 108:1 111:1 113:1 116:1 122:1 125:1 128:1 130:1 137:1 140:1 146:1 149:1 152:1 155:1 161:1 164:1 166:1 176:1 
-10 5:1 13:1 16:1 22:1 25:1 29:1 31:1 34:1 42:1 44:1 46:1 55:1 61:1 65:1 77:1 85:1 90:1 91:1 94:1 103:1 107:1 109:1 112:1 117:1 118:1 121:1 128:1 131:1 134:1 136:1 139:1 142:1 146:1 152:1 154:1 158:1 161:1 163:1 168:1 171:1 172:1 180:1 
-3.468735423580654 4:1 7:1 10:1 17:1 26:1 31:1 36:1 38:1 44:1 49:1 64:1 77:1 79:1 83:1 85:1 90:1 91:1 101:1 103:1 115:1 123:1 124:1 129:1 130:1 136:1 141:1 143:1 145:1 148:1 153:1 154:1 157:1 162:1 165:1 167:1 169:1 176:1 179:1 
-0.427193666435922 3:1 5:1 8:1 15:1 17:1 24:1 25:1 28:1 32:1 38:1 40:1 44:1 46:1 50:1 57:1 68:1 74:1 77:1 79:1 83:1 85:1 90:1 92:1 96:1 98:1 100:1 108:1 109:1 114:1 115:1 120:1 122:1 125:1 128:1 130:1 135:1 137:1 140:1 143:1 147:1 150:1 152:1 154:1 158:1 161:1 164:1 167:1 174:1 180:1 
-10 3:1 4:1 9:1 14:1 16:1 21:1 23:1 30:1 31:1 34:1 37:1 40:1 51:1 57:1 58:1 62:1 64:1 67:1 70:1 77:1 79:1 83:1 93:1 97:1 100:1 105:1 109:1 113:1 115:1 125:1 130:1 133:1 144:1 150:1 153:1 154:1 159:1 160:1 170:1 
-1.158112633164602 1:1 5:1 12:1 15:1 18:1 20:1 23:1 30:1 33:1 36:1 38:1 40:1 43:1 46:1 50:1 52:1 58:1 61:1 70:1 74:1 81:1 83:1 86:1 90:1 93:1 97:1 102:1 105:1 109:1 114:1 116:1 118:1 122:1 124:1 129:1 132:1 135:1 138:1 144:1 147:1 150:1 153:1 156:1 159:1 167:1 169:1 174:1 177:1 
-10 3:1 6:1 7:1 12:1 15:1 17:1 19:1 24:1 27:1 28:1 31:1 39:1 41:1 43:1 48:1 50:1 52:1 59:1 62:1 65:1 72:1 77:1 84:1 90:1 93:1 97:1 102:1 105:1 107:1 114:1 117:1 120:1 123:1 126:1 128:1 130:1 135:1 141:1 144:1 147:1 150:1 152:1 156:1 157:1 161:1 164:1 167:1 169:1 177:1 178:1 
-10 3:1 6:1 9:1 11:1 15:1 17:1 24:1 29:1 32:1 39:1 53:1 59:1 62:1 69:1 75:1 81:1 83:1 85:1 90:1 91:1 95:1 98:1 102:1 111:1 114:1 117:1 120:1 123:1 126:1 129:1 135:1 136:1 139:1 148:1 152:1 161:1 170:1 174:1 175:1 179:1 
-10 2:1 18:1 22:1 25:1 34:1 37:1 45:1 46:1 51:1 52:1 70:1 85:1 90:1 91:1 99:1 101:1 104:1 111:1 112:1 117:1 120:1 121:1 124:1 129:1 135:1 137:1 139:1 143:1 146:1 148:1 156:1 159:1 160:1 165:1 166:1 171:1 174:1 175:1 180:1 
-3.612865195259998 3:1 6:1 9:1 11:1 13:1 17:1 19:1 24:1 30:1 32:1 35:1 37:1 41:1 47:1 49:1 54:1 60:1 62:1 65:1 72:1 77:1 79:1 82:1 85:1 88:1 93:1 97:1 105:1 111:1 113:1 120:1 121:1 126:1 129:1 131:1 138:1 141:1 142:1 145:1 150:1 153:1 159:1 162:1 168:1 170:1 172:1 180:1 
-10 2:1 5:1 9:1 11:1 13:1 16:1 20:1 26:1 28:1 33:1 38:1 47:1 50:1 52:1 57:1 59:1 61:1 66:1 69:1 72:1 74:1 76:1 84:1 85:1 88:1 93:1 99:1 100:1 105:1 111:1 113:1 116:1 119:1 121:1 125:1 128:1 131:1 134:1 137:1 139:1 147:1 150:1 152:1 154:1 158:1 161:1 166:1 170:1 173:1 176:1 178:1 
-10 5:1 8:1 10:1 13:1 17:1 19:1 24:1 27:1 30:1 31:1 36:1 39:1 40:1 43:1 46:1 50:1 52:1 56:1 58:1 61:1 65:1 67:1 72:1 73:1 76:1 79:1 86:1 89:1 93:1 99:1 100:1 105:1 111:1 114:1 115:1 123:1 125:1 128:1 138:1 139:1 143:1 146:1 149:1 152:1 154:1 159:1 162:1 164:1 168:1 171:1 174:1 177:1 178:1 
-10 2:1 4:1 8:1 14:1 16:1 21:1 25:1 33:1 38:1 45:1 47:1 49:1 54:1 55:1 63:1 67:1 71:1 74:1 77:1 80:1 90:1 93:1 97:1 100:1 105:1 106:1 112:1 115:1 121:1 124:1 127:1 141:1 142:1 145:1 149:1 152:1 162:1 177:1 178:1 
-10 5:1 13:1 16:1 22:1 25:1 29:1 31:1 34:1 42:1 44:1 46:1 55:1 61:1 65:1 77:1 85:1 90:1 91:1 94:1 103:1 107:1 109:1 112:1 117:1 118:1 121:1 128:1 131:1 134:1 136:1 139:1 142:1 146:1 152:1 154:1 158:1 161:1 163:1 168:1 171:1 172:1 180:1 
-10 6:1 9:1 11:1 14:1 16:1 21:1 23:1 26:1 32:1 37:1 40:1 44:1 50:1 53:1 55:1 60:1 62:1 65:1 68:1 71:1 74:1 83:1 85:1 90:1 92:1 94:1 101:1 107:1 110:1 114:1 117:1 119:1 124:1 128:1 132:1 133:1 137:1 139:1 146:1 149:1 152:1 159:1 160:1 165:1 168:1 171:1 173:1 175:1 179:1 
-10 6:1 12:1 15:1 19:1 26:1 32:1 44:1 50:1 52:1 59:1 71:1 74:1 77:1 83:1 85:1 90:1 96:1 97:1 104:1 111:1 115:1 119:1 122:1 124:1 132:1 143:1 145:1 149:1 151:1 155:1 158:1 160:1 165:1 171:1 174:1 
-10 4:1 10:1 16:1 22:1 28:1 33:1 73:1 76:1 80:1 85:1 90:1 91:1 94:1 102:1 103:1 107:1 110:1 112:1 117:1 122:1 124:1 127:1 131:1 133:1 138:1 141:1 144:1 147:1 148:1 152:1 154:1 160:1 163:1 166:1 169:1 174:1 178:1 
-10 1:1 9:1 13:1 17:1 24:1 26:1 28:1 33:1 34:1 39:1 40:1 46:1 49:1 54:1 64:1 69:1 71:1 78:1 79:1 83:1 86:1 93:1 97:1 100:1 105:1 120:1 122:1 130:1 136:1 142:1 145:1 148:1 156:1 160:1 164:1 175:1 178:1 
-10 4:1 9:1 11:1 17:1 20:1 23:1 28:1 36:1 38:1 41:1 43:1 46:1 51:1 54:1 57:1 63:1 66:1 68:1 70:1 73:1 76:1 79:1 90:1 93:1 97:1 105:1 112:1 121:1 124:1 129:1 132:1 135:1 138:1 142:1 146:1 148:1 154:1 170:1 173:1 175:1 178:1 
-10 2:1 5:1 7:1 12:1 14:1 23:1 26:1 28:1 31:1 36:1 42:1 44:1 47:1 49:1 53:1 60:1 62:1 64:1 69:1 75:1 77:1 82:1 85:1 93:1 99:1 100:1 105:1 111:1 112:1 115:1 123:1 125:1 131:1 142:1 145:1 150:1 151:1 154:1 158:1 170:1 173:1 175:1 178:1 
-10 5:1 12:1 14:1 18:1 19:1 24:1 27:1 28:1 31:1 34:1 39:1 42:1 45:1 46:1 49:1 54:1 57:1 58:1 63:1 65:1 67:1 70:1 75:1 77:1 80:1 84:1 90:1 93:1 97:1 102:1 105:1 110:1 114:1 117:1 120:1 131:1 138:1 142:1 146:1 149:1 159:1 162:1 165:1 168:1 173:1 180:1 
-10 2:1 5:1 9:1 10:1 15:1 20:1 22:1 26:1 32:1 35:1 42:1 47:1 49:1 53:1 61:1 65:1 68:1 71:1 78:1 79:1 83:1 85:1 90:1 93:1 95:1 98:1 103:1 108:1 109:1 113:1 119:1 122:1 125:1 129:1 130:1 135:1 138:1 140:1 149:1 152:1 158:1 171:1 174:1 176:1 179:1 
-10 1:1 6:1 7:1 10:1 14:1 18:1 21:1 24:1 25:1 28:1 33:1 36:1 37:1 42:1 43:1 48:1 50:1 53:1 60:1 62:1 64:1 69:1 71:1 75:1 77:1 81:1 83:1 87:1 90:1 93:1 97:1 101:1 104:1 106:1 111:1 114:1 117:1 120:1 122:1 124:1 129:1 135:1 138:1 141:1 144:1 145:1 150:1 152:1 155:1 164:1 167:1 170:1 173:1 175:1 
-10 1:1 4:1 12:1 16:1 22:1 30:1 34:1 37:1 43:1 46:1 56:1 65:1 67:1 83:1 85:1 90:1 93:1 94:1 97:1 102:1 103:1 106:1 111:1 112:1 115:1 124:1 128:1 130:1 135:1 136:1 139:1 142:1 148:1 152:1 154:1 161:1 164:1 166:1 171:1 174:1 175:1 180:1 
-8.878235756493909 1:1 7:1 11:1 14:1 24:1 27:1 29:1 33:1 35:1 40:1 45:1 49:1 63:1 64:1 67:1 72:1 74:1 76:1 80:1 83:1 85:1 88:1 93:1 97:1 100:1 105:1 110:1 114:1 118:1 122:1 125:1 142:1 146:1 149:1 153:1 154:1 159:1 164:1 166:1 170:1 174:1 175:1 178:1 
-10 2:1 5:1 11:1 14:1 17:1 21:1 23:1 36:1 42:1 48:1 50:1 53:1 56:1 59:1 63:1 65:1 71:1 74:1 76:1 81:1 83:1 85:1 90:1 92:1 95:1 101:1 104:1 107:1 111:1 113:1 117:1 118:1 122:1 126:1 127:1 135:1 137:1 140:1 143:1 146:1 152:1 154:1 157:1 161:1 165:1 172:1 176:1 179:1 
-2.424704161803078 3:1 4:1 14:1 17:1 22:1 26:1 28:1 33:1 35:1 38:1 48:1 50:1 53:1 60:1 62:1 68:1 74:1 79:1 82:1 85:1 90:1 93:1 95:1 97:1 100:1 104:1 110:1 115:1 120:1 121:1 125:1 127:1 134:1 138:1 140:1 144:1 149:1 152:1 154:1 157:1 161:1 163:1 166:1 170:1 173:1 177:1 
-1.205007844841947 2:1 4:1 11:1 24:1 38:1 44:1 47:1 59:1 61:1 68:1 74:1 76:1 79:1 83:1 85:1 90:1 92:1 98:1 101:1 108:1 111:1 114:1 115:1 118:1 121:1 129:1 135:1 137:1 144:1 147:1 153:1 154:1 158:1 161:1 165:1 180:1 
-10 3:1 6:1 7:1 11:1 15:1 18:1 21:1 24:1 26:1 33:1 34:1 38:1 41:1 43:1 47:1 51:1 54:1 57:1 60:1 63:1 65:1 69:1 72:1 75:1 78:1 80:1 83:1 85:1 90:1 93:1 96:1 101:1 107:1 109:1 113:1 115:1 119:1 122:1 125:1 131:1 134:1 136:1 141:1 147:1 150:1 151:1 159:1 165:1 171:1 174:1 176:1 
-4.361686898360276 2:1 4:1 8:1 12:1 15:1 21:1 26:1 32:1 34:1 53:1 56:1 62:1 65:1 68:1 77:1 80:1 85:1 90:1 96:1 98:1 100:1 103:1 107:1 110:1 112:1 117:1 118:1 123:1 126:1 132:1 133:1 137:1 139:1 144:1 150:1 154:1 158:1 161:1 164:1 166:1 171:1 172:1 177:1 178:1 
-10 2:1 7:1 12:1 13:1 18:1 21:1 22:1 25:1 30:1 33:1 35:1 37:1 44:1 47:1 49:1 52:1 55:1 63:1 65:1 72:1 73:1 81:1 84:1 87:1 90:1 93:1 99:1 100:1 105:1 108:1 111:1 117:1 120:1 122:1 124:1 128:1 131:1 133:1 138:1 141:1 144:1 147:1 152:1 155:1 158:1 161:1 163:1 166:1 173:1 176:1 
-0.5346533259532498 4:1 8:1 11:1 13:1 21:1 25:1 29:1 35:1 42:1 44:1 47:1 55:1 62:1 68:1 71:1 74:1 77:1 80:1 83:1 85:1 90:1 91:1 96:1 108:1 109:1 117:1 119:1 125:1 128:1 130:1 133:1 138:1 140:1 143:1 146:1 152:1 158:1 161:1 164:1 166:1 171:1 172:1 177:1 178:1 
-10 6:1 7:1 10:1 15:1 18:1 20:1 26:1 29:1 33:1 35:1 38:1 48:1 51:1 54:1 55:1 58:1 61:1 64:1 68:1 70:1 75:1 77:1 82:1 85:1 88:1 93:1 97:1 100:1 105:1 108:1 109:1 113:1 116:1 119:1 121:1 126:1 128:1 131:1 138:1 141:1 144:1 147:1 156:1 157:1 162:1 165:1 168:1 170:1 172:1 177:1 180:1 
-10 3:1 6:1 8:1 12:1 15:1 23:1 30:1 32:1 39:1 41:1 48:1 50:1 53:1 56:1 69:1 72:1 75:1 78:1 83:1 86:1 88:1 93:1 99:1 100:1 105:1 110:1 112:1 115:1 119:1 121:1 125:1 128:1 131:1 134:1 137:1 141:1 149:1 152:1 155:1 158:1 162:1 163:1 166:1 170:1 173:1 176:1 
-10 1:1 6:1 7:1 10:1 14:1 18:1 21:1 24:1 25:1 28:1 33:1 36:1 37:1 42:1 43:1 46:1 51:1 53:1 60:1 62:1 64:1 69:1 71:1 75:1 77:1 81:1 83:1 87:1 90:1 93:1 97:1 101:1 104:1 106:1 111:1 114:1 117:1 120:1 122:1 124:1 129:1 135:1 138:1 141:1 144:1 145:1 150:1 152:1 155:1 164:1 167:1 170:1 173:1 175:1 
-10 6:1 9:1 15:1 16:1 20:1 23:1 27:1 30:1 33:1 34:1 39:1 41:1 45:1 51:1 54:1 57:1 58:1 63:1 66:1 67:1 78:1 79:1 87:1 90:1 93:1 99:1 100:1 105:1 111:1 114:1 118:1 123:1 126:1 129:1 130:1 135:1 141:1 144:1 146:1 149:1 155:1 159:1 162:1 164:1 166:1 171:1 173:1 179:1 
-10 2:1 5:1 12:1 13:1 17:1 23:1 29:1 31:1 36:1 38:1 41:1 48:1 51:1 53:1 58:1 65:1 72:1 80:1 85:1 90:1 91:1 94:1 102:1 107:1 110:1 117:1 119:1 122:1 129:1 132:1 134:1 141:1 147:1 150:1 152:1 161:1 167:1 170:1 177:1 
-10 2:1 4:1 9:1 11:1 14:1 16:1 20:1 26:1 33:1 35:1 38:1 41:1 44:1 46:1 49:1 54:1 55:1 63:1 66:1 69:1 71:1 74:1 78:1 84:1 87:1 90:1 93:1 99:1 100:1 105:1 109:1 116:1 119:1 122:1 127:1 130:1 133:1 138:1 139:1 144:1 146:1 148:1 153:1 156:1 159:1 162:1 167:1 171:1 173:1 175:1 180:1 
-7.459139337176855 8:1 11:1 17:1 31:1 35:1 38:1 40:1 43:1 48:1 51:1 52:1 56:1 59:1 62:1 66:1 68:1 71:1 73:1 76:1 80:1 82:1 90:1 93:1 97:1 102:1 105:1 111:1 126:1 129:1 131:1 137:1 141:1 142:1 147:1 150:1 152:1 155:1 159:1 161:1 164:1 166:1 173:1 176:1 
-10 3:1 4:1 7:1 21:1 29:1 31:1 39:1 40:1 44:1 49:1 65:1 74:1 81:1 85:1 90:1 92:1 95:1 102:1 103:1 108:1 109:1 113:1 115:1 120:1 122:1 129:1 131:1 134:1 144:1 150:1 156:1 158:1 162:1 163:1 167:1 174:1 175:1 180:1 
-10 2:1 6:1 7:1 12:1 13:1 16:1 21:1 39:1 40:1 43:1 46:1 49:1 53:1 55:1 59:1 66:1 67:1 70:1 73:1 78:1 79:1 82:1 86:1 88:1 93:1 99:1 100:1 105:1 109:1 122:1 125:1 127:1 131:1 133:1 139:1 142:1 148:1 152:1 155:1 158:1 167:1 169:1 174:1 175:1 
-10 3:1 4:1 9:1 13:1 21:1 24:1 25:1 38:1 40:1 44:1 46:1 56:1 61:1 64:1 68:1 70:1 74:1 76:1 85:1 90:1 91:1 94:1 99:1 101:1 108:1 110:1 112:1 117:1 120:1 121:1 129:1 131:1 138:1 139:1 142:1 145:1 156:1 158:1 160:1 163:1 168:1 171:1 173:1 180:1 
-10 3:1 7:1 12:1 13:1 28:1 35:1 37:1 42:1 43:1 47:1 54:1 55:1 58:1 63:1 64:1 69:1 71:1 76:1 87:1 93:1 99:1 100:1 105:1 109:1 115:1 127:1 130:1 136:1 142:1 150:1 151:1 161:1 178:1 
-7.170609558951553 3:1 6:1 9:1 12:1 14:1 16:1 21:1 24:1 25:1 29:1 35:1 38:1 40:1 44:1 47:1 50:1 54:1 55:1 62:1 64:1 74:1 77:1 80:1 83:1 85:1 90:1 91:1 101:1 103:1 108:1 110:1 112:1 117:1 119:1 123:1 124:1 128:1 135:1 137:1 139:1 144:1 147:1 148:1 153:1 156:1 157:1 162:1 164:1 169:1 174:1 175:1 179:1 
-10 3:1 6:1 9:1 10:1 14:1 18:1 21:1 24:1 26:1 33:1 34:1 38:1 41:1 43:1 47:1 51:1 54:1 57:1 60:1 63:1 65:1 69:1 72:1 75:1 78:1 80:1 83:1 85:1 90:1 93:1 96:1 101:1 107:1 109:1 113:1 115:1 119:1 122:1 125:1 131:1 134:1 136:1 141:1 142:1 147:1 150:1 151:1 159:1 163:1 167:1 171:1 174:1 176:1 
